{"learner":{"attributes":{"scikit_learn":"{\"_estimator_type\": \"classifier\"}"},"feature_names":["amount","ratio_avg_amount","day_of_week","hour","is_weekend","days_since_onboard","freq_30d","freq_90d","po_mismatch","is_near_threshold"],"feature_types":["float","float","int","int","int","int","int","int","int","int"],"gradient_booster":{"model":{"cats":{"enc":[],"feature_segments":[],"sorted_idx":[]},"gbtree_model_param":{"num_parallel_tree":"1","num_trees":"100"},"iteration_indptr":[0,1,2,3,4,5,6,7,8,9,10,11,12,13,14,15,16,17,18,19,20,21,22,23,24,25,26,27,28,29,30,31,32,33,34,35,36,37,38,39,40,41,42,43,44,45,46,47,48,49,50,51,52,53,54,55,56,57,58,59,60,61,62,63,64,65,66,67,68,69,70,71,72,73,74,75,76,77,78,79,80,81,82,83,84,85,86,87,88,89,90,91,92,93,94,95,96,97,98,99,100],"tree_info":[0,0,0,0,0,0,0,0,0,0,0,0,0,0,0,0,0,0,0,0,0,0,0,0,0,0,0,0,0,0,0,0,0,0,0,0,0,0,0,0,0,0,0,0,0,0,0,0,0,0,0,0,0,0,0,0,0,0,0,0,0,0,0,0,0,0,0,0,0,0,0,0,0,0,0,0,0,0,0,0,0,0,0,0,0,0,0,0,0,0,0,0,0,0,0,0,0,0,0,0],"trees":[{"base_weights":[6.8308528E-9,-7.340937E-1,1.0207781E0,-8.376734E-1,2.693102E0,-3.2820287E-1,-8.823563E-1,6.5265685E-1,-7.8527495E-2,-6.277818E-1,1.1237371E-1,-9.446118E-1,-5.711888E-1,4.2962786E-2,-8.241405E-2,7.467485E-2,-5.511715E-2,-9.511228E-2,-2.5880277E-2,-8.647048E-2,-2.5909094E-2],"categories":[],"categories_nodes":[],"categories_segments":[],"categories_sizes":[],"default_left":[0,0,0,0,0,0,0,0,0,0,0,0,0,0,0,0,0,0,0,0,0],"id":0,"left_children":[1,3,-1,5,7,9,11,-1,-1,13,15,17,19,-1,-1,-1,-1,-1,-1,-1,-1],"loss_changes":[1.3152233E3,6.038186E1,0E0,3.3459015E0,7.2340164E1,1.9803095E0,2.2932053E0,0E0,0E0,2.1738904E0,3.2338114E0,2.9112244E-1,2.24094E0,0E0,0E0,0E0,0E0,0E0,0E0,0E0,0E0],"parents":[2147483647,0,0,1,1,3,3,4,4,5,5,6,6,9,9,10,10,11,11,12,12],"right_children":[2,4,-1,6,8,10,12,-1,-1,14,16,18,20,-1,-1,-1,-1,-1,-1,-1,-1],"split_conditions":[1.7661654E0,1E0,1.0207781E0,7E0,5E0,2.33692E3,1.001E3,6.5265685E-1,-7.8527495E-2,2.71E2,4.20256E3,1.8E1,3E0,4.2962786E-2,-8.241405E-2,7.467485E-2,-5.511715E-2,-9.511228E-2,-2.5880277E-2,-8.647048E-2,-2.5909094E-2],"split_indices":[1,9,0,3,3,0,5,0,0,5,0,7,2,0,0,0,0,0,0,0,0],"split_type":[0,0,0,0,0,0,0,0,0,0,0,0,0,0,0,0,0,0,0,0,0],"sum_hessian":[1.7351598E2,1.6274055E2,1.0775421E1,1.5869977E2,4.040783E0,1.3469276E1,1.452305E2,1.5053897E0,2.5353932E0,7.764642E0,5.7046347E0,1.19321945E2,2.590855E1,1.0300035E0,6.734638E0,2.8523173E0,2.8523173E0,1.1781655E2,1.5053897E0,1.2439273E1,1.3469276E1],"tree_param":{"num_deleted":"0","num_feature":"10","num_nodes":"21","size_leaf_vector":"1"}},{"base_weights":[-2.8592592E-2,-6.845043E-1,4.5762548E-1,-8.1364864E-1,2.3116233E0,-3.0636355E-1,-8.601133E-1,4.4043922E-1,-7.887351E-2,-5.997483E-1,1.0173239E-1,-9.25477E-1,-5.4300785E-1,4.0013127E-2,-8.010523E-2,6.5890096E-2,-5.2880492E-2,-9.3230926E-2,-2.4656046E-2,-8.416253E-2,-2.3997335E-2],"categories":[],"categories_nodes":[],"categories_segments":[],"categories_sizes":[],"default_left":[0,0,0,0,0,0,0,0,0,0,0,0,0,0,0,0,0,0,0,0,0],"id":1,"left_children":[1,3,-1,5,7,9,11,-1,-1,13,15,17,19,-1,-1,-1,-1,-1,-1,-1,-1],"loss_changes":[5.3618896E2,6.199185E1,0E0,3.2643967E0,4.6815395E1,1.7506485E0,2.3279724E0,0E0,0E0,2.0022087E0,2.7223344E0,2.887268E-1,2.1288939E0,0E0,0E0,0E0,0E0,0E0,0E0,0E0,0E0],"parents":[2147483647,0,0,1,1,3,3,4,4,5,5,6,6,9,9,10,10,11,11,12,12],"right_children":[2,4,-1,6,8,10,12,-1,-1,14,16,18,20,-1,-1,-1,-1,-1,-1,-1,-1],"split_conditions":[2.0472703E0,1E0,4.5762548E-1,7E0,5E0,2.33692E3,1.001E3,4.4043922E-1,-7.887351E-2,2.71E2,4.20256E3,1.8E1,3E0,4.0013127E-2,-8.010523E-2,6.5890096E-2,-5.2880492E-2,-9.3230926E-2,-2.4656046E-2,-8.416253E-2,-2.3997335E-2],"split_indices":[1,9,0,3,3,0,5,0,0,5,0,7,2,0,0,0,0,0,0,0,0],"split_type":[0,0,0,0,0,0,0,0,0,0,0,0,0,0,0,0,0,0,0,0,0],"sum_hessian":[1.7548697E2,1.5435245E2,2.1134518E1,1.4867253E2,5.6799135E0,1.3112143E1,1.355604E2,3.1398683E0,2.5400455E0,7.3549557E0,5.7571864E0,1.1080256E2,2.4757828E1,1.067076E0,6.28788E0,3.0325332E0,2.7246532E0,1.0932911E2,1.4734541E0,1.1574608E1,1.318322E1],"tree_param":{"num_deleted":"0","num_feature":"10","num_nodes":"21","size_leaf_vector":"1"}},{"base_weights":[-3.41785E-2,-6.781898E-1,3.1839542E0,-7.8662425E-1,1.7564827E0,8.40957E-2,3.2767114E-1,-2.861399E-1,-8.3486015E-1,3.2333174E-1,-7.456009E-2,-8.764665E-3,-7.0696056E-1,-9.033463E-1,-5.1547223E-1,-3.047481E-2,8.83035E-2,-8.461176E-2,-4.4495724E-3,-9.1053486E-2,-2.3486463E-2,-8.186146E-2,-2.2196954E-2],"categories":[],"categories_nodes":[],"categories_segments":[],"categories_sizes":[],"default_left":[0,0,0,0,0,0,0,0,0,0,0,0,0,0,0,0,0,0,0,0,0,0,0],"id":2,"left_children":[1,3,5,7,9,-1,-1,11,13,-1,-1,15,17,19,21,-1,-1,-1,-1,-1,-1,-1,-1],"loss_changes":[3.6072403E2,3.965798E1,3.5523987E0,3.128662E0,2.6397009E1,0E0,0E0,1.6027209E0,2.305954E0,0E0,0E0,2.7292979E0,4.6600318E-1,2.8115082E-1,2.0160918E0,0E0,0E0,0E0,0E0,0E0,0E0,0E0,0E0],"parents":[2147483647,0,0,1,1,2,2,3,3,4,4,7,7,8,8,11,11,12,12,13,13,14,14],"right_children":[2,4,6,8,10,-1,-1,12,14,-1,-1,16,18,20,22,-1,-1,-1,-1,-1,-1,-1,-1],"split_conditions":[1.7661654E0,1E0,2.0472703E0,7E0,5E0,8.40957E-2,3.2767114E-1,1.0449736E0,1.001E3,3.2333174E-1,-7.456009E-2,9.931753E-1,1.3688388E0,1.8E1,3E0,-3.047481E-2,8.83035E-2,-8.461176E-2,-4.4495724E-3,-9.1053486E-2,-2.3486463E-2,-8.186146E-2,-2.2196954E-2],"split_indices":[1,9,1,3,3,0,0,1,5,0,0,1,1,7,2,0,0,0,0,0,0,0,0],"split_type":[0,0,0,0,0,0,0,0,0,0,0,0,0,0,0,0,0,0,0,0,0,0,0],"sum_hessian":[1.7200957E2,1.4398468E2,2.802489E1,1.3849342E2,5.4912534E0,1.4505658E0,2.6574326E1,1.27838E1,1.25709625E2,3.269316E0,2.2219374E0,8.320405E0,4.463395E0,1.0200778E2,2.3701843E1,6.7412868E0,1.5791186E0,3.4594738E0,1.0039214E0,1.0056426E2,1.4435202E0,1.0779347E1,1.2922496E1],"tree_param":{"num_deleted":"0","num_feature":"10","num_nodes":"23","size_leaf_vector":"1"}},{"base_weights":[-3.5485122E-2,2.128214E0,-8.020743E-1,-9.175178E-2,2.748321E-1,-8.653401E-1,-5.100294E-1,-4.365372E-1,1.2976192E-1,-9.500147E-2,-8.8880545E-1,-8.053503E-1,-2.3565961E-1,-8.256341E-2,-1.274575E-1,3.4374345E-2,-6.0643572E-2,-8.962453E-1,-2.2369491E-2,-9.625029E-2,2.3298191E-3,-4.7596794E-1,6.020626E-1,-4.2515304E-2,4.4120338E-2,-9.0348504E-2,-2.885826E-2,2.410219E-2,-7.352965E-2,1.6867843E-1,-6.360968E-2],"categories":[],"categories_nodes":[],"categories_segments":[],"categories_sizes":[],"default_left":[0,0,0,0,0,0,0,0,0,0,0,0,0,0,0,0,0,0,0,0,0,0,0,0,0,0,0,0,0,0,0],"id":3,"left_children":[1,3,5,7,-1,9,11,13,-1,15,17,19,21,-1,23,-1,-1,25,-1,-1,-1,27,29,-1,-1,-1,-1,-1,-1,-1,-1],"loss_changes":[2.8000467E2,6.1053802E1,1.8611145E0,5.649642E0,0E0,1.7411194E0,1.8054509E0,1.0071696E0,0E0,1.1295903E0,2.8388977E-1,1.5129337E0,3.1408856E0,0E0,1.2604451E0,0E0,0E0,1.6368103E-1,0E0,0E0,0E0,2.329709E0,5.910834E0,0E0,0E0,0E0,0E0,0E0,0E0,0E0,0E0],"parents":[2147483647,0,0,1,1,2,2,3,3,5,5,6,6,7,7,9,9,10,10,11,11,12,12,14,14,17,17,21,21,22,22],"right_children":[2,4,6,8,-1,10,12,14,-1,16,18,20,22,-1,24,-1,-1,26,-1,-1,-1,28,30,-1,-1,-1,-1,-1,-1,-1,-1],"split_conditions":[5E0,9.29556E3,1.001E3,1.3996612E0,2.748321E-1,7E0,3E0,3E0,1.2976192E-1,9.9589324E-1,1.8E1,4.60557E3,1.3E1,-8.256341E-2,5E0,3.4374345E-2,-6.0643572E-2,9E0,-2.2369491E-2,-9.625029E-2,2.3298191E-3,8.5256E2,1.12E3,-4.2515304E-2,4.4120338E-2,-9.0348504E-2,-2.885826E-2,2.410219E-2,-7.352965E-2,1.6867843E-1,-6.360968E-2],"split_indices":[3,0,5,1,0,3,2,6,0,1,7,0,7,0,2,0,0,6,0,0,0,0,5,0,0,0,0,0,0,0,0],"split_type":[0,0,0,0,0,0,0,0,0,0,0,0,0,0,0,0,0,0,0,0,0,0,0,0,0,0,0,0,0,0,0],"sum_hessian":[1.6678383E2,4.3167446E1,1.2361638E2,9.6113E0,3.3556145E1,9.999204E1,2.362434E1,8.24983E0,1.3614702E0,3.105065E0,9.688698E1,1.0445711E1,1.317863E1,2.9123015E0,5.3375287E0,1.8477856E0,1.2572794E0,9.547153E1,1.4154502E0,8.644714E0,1.8009968E0,1.0576495E1,2.6021345E0,3.6691036E0,1.6684248E0,9.386638E1,1.6051452E0,2.8280673E0,7.748428E0,1.1938761E0,1.4082582E0],"tree_param":{"num_deleted":"0","num_feature":"10","num_nodes":"31","size_leaf_vector":"1"}},{"base_weights":[-3.700096E-2,1.8313943E0,-7.7763635E-1,-8.09586E-2,2.3244219E-1,-8.435949E-1,-4.8285195E-1,-4.1446632E-1,1.181466E-1,-9.279866E-2,-8.6819017E-1,-1.3228413E-1,-7.1519023E-1,-8.0528885E-2,-1.1634666E-1,3.1522837E-2,-5.8985006E-2,-7.152411E-1,-9.4484395E-1,-3.799338E-1,6.46842E-2,1.2051555E-2,-8.301473E-1,2.10054E-2,-6.647348E-2,-8.759099E-2,-4.1862592E-2,-1.7988084E-2,-9.598274E-2,-6.9302745E-2,1.00154085E-2,-9.655731E-2,-2.5643377E-2],"categories":[],"categories_nodes":[],"categories_segments":[],"categories_sizes":[],"default_left":[0,0,0,0,0,0,0,0,0,0,0,0,0,0,0,0,0,0,0,0,0,0,0,0,0,0,0,0,0,0,0,0,0],"id":4,"left_children":[1,3,5,7,-1,9,11,13,-1,15,17,19,21,-1,23,-1,-1,25,27,29,-1,-1,31,-1,-1,-1,-1,-1,-1,-1,-1,-1,-1],"loss_changes":[2.2509709E2,4.3731003E1,1.8569412E0,4.881974E0,0E0,1.6519775E0,1.8301535E0,9.540435E-1,0E0,1.0165945E0,3.8791656E-1,2.2999003E0,1.4436016E0,0E0,1.261951E0,0E0,0E0,1.2729473E0,4.8435593E-1,1.3783642E0,0E0,0E0,7.1743584E-1,0E0,0E0,0E0,0E0,0E0,0E0,0E0,0E0,0E0,0E0],"parents":[2147483647,0,0,1,1,2,2,3,3,5,5,6,6,7,7,9,9,10,10,11,11,12,12,14,14,17,17,18,18,19,19,22,22],"right_children":[2,4,6,8,-1,10,12,14,-1,16,18,20,22,-1,24,-1,-1,26,28,30,-1,-1,32,-1,-1,-1,-1,-1,-1,-1,-1,-1,-1],"split_conditions":[5E0,9.29556E3,1.001E3,1.3996612E0,2.3244219E-1,7E0,1.075E3,3E0,1.181466E-1,9.9589324E-1,5.15E2,1.2E1,3.9116E2,-8.0528885E-2,3.27419E3,3.1522837E-2,-5.8985006E-2,2.28996E3,5.3230584E-1,1.043E3,6.46842E-2,1.2051555E-2,1.4E1,2.10054E-2,-6.647348E-2,-8.759099E-2,-4.1862592E-2,-1.7988084E-2,-9.598274E-2,-6.9302745E-2,1.00154085E-2,-9.655731E-2,-2.5643377E-2],"split_indices":[3,0,5,1,0,3,5,6,0,1,5,7,0,0,0,0,0,0,1,5,0,0,7,0,0,0,0,0,0,0,0,0,0],"split_type":[0,0,0,0,0,0,0,0,0,0,0,0,0,0,0,0,0,0,0,0,0,0,0,0,0,0,0,0,0,0,0,0,0],"sum_hessian":[1.6063678E2,4.51825E1,1.15454285E2,9.432305E0,3.5750195E1,9.282318E1,2.2631107E1,7.9925275E0,1.439778E0,3.095732E0,8.972745E1,9.645969E0,1.2985137E1,2.7223768E0,5.2701507E0,1.9010077E0,1.1947244E0,3.3404816E1,5.632263E1,7.7082253E0,1.9377443E0,1.5643559E0,1.1420781E1,3.690516E0,1.5796347E0,2.0401064E1,1.3003752E1,1.3318446E0,5.4990788E1,4.397084E0,3.3111413E0,8.687146E0,2.733635E0],"tree_param":{"num_deleted":"0","num_feature":"10","num_nodes":"33","size_leaf_vector":"1"}},{"base_weights":[-3.879108E-2,1.6218652E0,-7.533726E-1,-7.5967014E-2,2.0431145E-1,-8.218657E-1,-4.5756805E-1,-3.9690873E-1,1.0796098E-1,-9.102956E-2,-8.475571E-1,-7.697024E-1,-1.8229568E-1,-7.8539535E-2,-1.1291352E-1,2.8933221E-2,-5.7380658E-2,-6.8950206E-1,-9.284664E-1,-9.407028E-2,4.9249404E-3,-6.3106656E-1,2.480596E-1,1.9071795E-2,-6.468445E-2,-7.713305E-2,-1.6294418E-2,-1.7121918E-2,-9.444043E-2,-1.8058738E-2,-8.364904E-2,9.1696E-2,-7.748761E-2],"categories":[],"categories_nodes":[],"categories_segments":[],"categories_sizes":[],"default_left":[0,0,0,0,0,0,0,0,0,0,0,0,0,0,0,0,0,0,0,0,0,0,0,0,0,0,0,0,0,0,0,0,0],"id":5,"left_children":[1,3,5,7,-1,9,11,13,-1,15,17,19,21,-1,23,-1,-1,25,27,-1,-1,29,31,-1,-1,-1,-1,-1,-1,-1,-1,-1,-1],"loss_changes":[1.8530333E2,3.3759804E1,1.835144E0,4.250111E0,0E0,1.5631866E0,1.8166056E0,8.8173854E-1,0E0,9.16541E-1,4.3754578E-1,1.4975481E0,2.7469559E0,0E0,1.1364626E0,0E0,0E0,1.2711926E0,4.7621536E-1,0E0,0E0,4.8265338E-1,5.886606E0,0E0,0E0,0E0,0E0,0E0,0E0,0E0,0E0,0E0,0E0],"parents":[2147483647,0,0,1,1,2,2,3,3,5,5,6,6,7,7,9,9,10,10,11,11,12,12,14,14,17,17,18,18,21,21,22,22],"right_children":[2,4,6,8,-1,10,12,14,-1,16,18,20,22,-1,24,-1,-1,26,28,-1,-1,30,32,-1,-1,-1,-1,-1,-1,-1,-1,-1,-1],"split_conditions":[5E0,9.29556E3,1.001E3,1.3996612E0,2.0431145E-1,7E0,3E0,3E0,1.0796098E-1,9.9589324E-1,5.15E2,4.60557E3,4E0,-7.8539535E-2,3.27419E3,2.8933221E-2,-5.7380658E-2,6E0,5.3230584E-1,-9.407028E-2,4.9249404E-3,1.2E1,2.84153E3,1.9071795E-2,-6.468445E-2,-7.713305E-2,-1.6294418E-2,-1.7121918E-2,-9.444043E-2,-1.8058738E-2,-8.364904E-2,9.1696E-2,-7.748761E-2],"split_indices":[3,0,5,1,0,3,2,6,0,1,5,0,6,0,0,0,0,6,1,0,0,3,0,0,0,0,0,0,0,0,0,0,0],"split_type":[0,0,0,0,0,0,0,0,0,0,0,0,0,0,0,0,0,0,0,0,0,0,0,0,0,0,0,0,0,0,0,0,0],"sum_hessian":[1.5412384E2,4.598561E1,1.0813822E2,9.304355E0,3.668126E1,8.636268E1,2.1775541E1,7.795747E0,1.5086079E0,3.0871353E0,8.327554E1,9.362806E0,1.2412735E1,2.5466185E0,5.2491283E0,1.9508365E0,1.1362988E0,3.1419641E1,5.1855904E1,7.622525E0,1.7402809E0,5.848051E0,6.564684E0,3.7560008E0,1.4931275E0,2.6791348E1,4.628295E0,1.3109847E0,5.0544918E1,2.4200838E0,3.4279675E0,4.0318475E0,2.5328364E0],"tree_param":{"num_deleted":"0","num_feature":"10","num_nodes":"33","size_leaf_vector":"1"}},{"base_weights":[-4.039414E-2,1.4656535E0,-7.2925615E-1,-7.205088E-2,1.841875E-1,-7.9975164E-1,-4.3595722E-1,-3.8033018E-1,9.8956995E-2,-8.9612074E-2,-8.265175E-1,-9.142687E-2,-6.766514E-1,-5.8038306E-1,7.576453E-2,-4.0502027E-1,4.2466614E-2,-6.632364E-1,-9.119529E-1,-6.056387E-1,2.5729227E-1,1.3658007E-2,-7.989506E-1,1.6461236E-2,-8.534873E-2,-6.1619114E-2,7.808127E-2,-5.6065418E-2,-4.6995E-3,-8.403963E-2,-3.5162892E-2,-1.629607E-2,-9.288937E-2,-6.3789324E-3,-7.54645E-2,-5.914705E-2,5.492974E-2,-9.439937E-2,-2.3509068E-2],"categories":[],"categories_nodes":[],"categories_segments":[],"categories_sizes":[],"default_left":[0,0,0,0,0,0,0,0,0,0,0,0,0,0,0,0,0,0,0,0,0,0,0,0,0,0,0,0,0,0,0,0,0,0,0,0,0,0,0],"id":6,"left_children":[1,3,5,7,-1,9,11,13,-1,15,17,19,21,23,25,27,-1,29,31,33,35,-1,37,-1,-1,-1,-1,-1,-1,-1,-1,-1,-1,-1,-1,-1,-1,-1,-1],"loss_changes":[1.5501253E2,2.7266495E1,1.7703018E0,3.7086725E0,0E0,1.4736366E0,1.7672739E0,8.29849E-1,0E0,8.3366764E-1,4.8809433E-1,1.9898812E0,1.385088E0,1.3821082E0,2.1937945E0,1.4305949E-1,0E0,1.3925896E0,4.6741104E-1,3.0965102E-1,2.0093968E0,0E0,7.0208216E-1,0E0,0E0,0E0,0E0,0E0,0E0,0E0,0E0,0E0,0E0,0E0,0E0,0E0,0E0,0E0,0E0],"parents":[2147483647,0,0,1,1,2,2,3,3,5,5,6,6,7,7,9,9,10,10,11,11,12,12,13,13,14,14,15,15,17,17,18,18,19,19,20,20,22,22],"right_children":[2,4,6,8,-1,10,12,14,-1,16,18,20,22,24,26,28,-1,30,32,34,36,-1,38,-1,-1,-1,-1,-1,-1,-1,-1,-1,-1,-1,-1,-1,-1,-1,-1],"split_conditions":[5E0,9.29556E3,1.001E3,1.3996612E0,1.841875E-1,7E0,1.075E3,5E0,9.8956995E-2,4E0,5.15E2,8E0,3.9116E2,9.1058E2,2.33692E3,8.4433854E-1,4.2466614E-2,2.28996E3,5.3230584E-1,1.21409E3,9E0,1.3658007E-2,1.4E1,1.6461236E-2,-8.534873E-2,-6.1619114E-2,7.808127E-2,-5.6065418E-2,-4.6995E-3,-8.403963E-2,-3.5162892E-2,-1.629607E-2,-9.288937E-2,-6.3789324E-3,-7.54645E-2,-5.914705E-2,5.492974E-2,-9.439937E-2,-2.3509068E-2],"split_indices":[3,0,5,1,0,3,5,2,0,2,5,7,0,0,0,1,0,0,1,0,3,0,7,0,0,0,0,0,0,0,0,0,0,0,0,0,0,0,0],"split_type":[0,0,0,0,0,0,0,0,0,0,0,0,0,0,0,0,0,0,0,0,0,0,0,0,0,0,0,0,0,0,0,0,0,0,0,0,0,0,0],"sum_hessian":[1.4738531E2,4.5902275E1,1.0148303E2,9.181962E0,3.6720314E1,8.042568E1,2.1057354E1,7.613002E0,1.5689597E0,3.0791516E0,7.734653E1,9.228088E0,1.1829266E1,5.102452E0,2.51055E0,2.040287E0,1.0388645E0,2.9579065E1,4.776746E1,3.431435E0,5.7966533E0,1.5311401E0,1.0298126E1,1.4752909E0,3.627161E0,1.3306447E0,1.1799053E0,1.0276182E0,1.012669E0,1.7775877E1,1.1803188E1,1.2913886E0,4.6476074E1,1.0481219E0,2.3833132E0,1.2212714E0,4.575382E0,7.654879E0,2.643247E0],"tree_param":{"num_deleted":"0","num_feature":"10","num_nodes":"39","size_leaf_vector":"1"}},{"base_weights":[-4.136245E-2,1.3464353E0,-7.049566E-1,-6.318004E-2,1.6902693E-1,-8.4144557E-1,-5.371284E-1,-3.5957626E-1,9.093931E-2,-8.567016E-1,-5.5547096E-3,-3.967897E-1,-8.9087665E-1,-7.5153425E-2,-9.0943836E-2,-5.001622E-1,-9.1273564E-1,-6.308712E-1,7.917453E-2,-1.6211485E-2,-9.620418E-2,1.8915122E-2,-6.1749764E-2,-7.847438E-2,5.487692E-2,-9.32784E-2,-9.710691E-3,-7.970399E-2,-2.5554765E-2,5.076629E-2,-8.155929E-2],"categories":[],"categories_nodes":[],"categories_segments":[],"categories_sizes":[],"default_left":[0,0,0,0,0,0,0,0,0,0,0,0,0,0,0,0,0,0,0,0,0,0,0,0,0,0,0,0,0,0,0],"id":7,"left_children":[1,3,5,7,-1,9,11,13,-1,15,-1,17,19,-1,21,23,25,27,29,-1,-1,-1,-1,-1,-1,-1,-1,-1,-1,-1,-1],"loss_changes":[1.3133006E2,2.2470055E1,1.757019E0,3.2130485E0,0E0,5.688896E-1,1.930973E0,8.150476E-1,0E0,5.4977036E-1,0E0,3.921504E0,4.802475E-1,0E0,1.0187868E0,3.1330793E0,6.0137177E-1,1.25601E0,5.146811E0,0E0,0E0,0E0,0E0,0E0,0E0,0E0,0E0,0E0,0E0,0E0,0E0],"parents":[2147483647,0,0,1,1,2,2,3,3,5,5,6,6,7,7,9,9,11,11,12,12,14,14,15,15,16,16,17,17,18,18],"right_children":[2,4,6,8,-1,10,12,14,-1,16,-1,18,20,-1,22,24,26,28,30,-1,-1,-1,-1,-1,-1,-1,-1,-1,-1,-1,-1],"split_conditions":[5E0,9.29556E3,4E0,1.3996612E0,1.6902693E-1,1.201567E4,1.1577036E0,3E0,9.093931E-2,7.7033716E-1,-5.5547096E-3,9.939519E-1,6E0,-7.5153425E-2,3.27419E3,7.4849534E-1,1.183E3,9.37E2,3.38316E3,-1.6211485E-2,-9.620418E-2,1.8915122E-2,-6.1749764E-2,-7.847438E-2,5.487692E-2,-9.32784E-2,-9.710691E-3,-7.970399E-2,-2.5554765E-2,5.076629E-2,-8.155929E-2],"split_indices":[3,0,6,1,0,0,1,6,0,1,0,1,7,0,0,1,5,5,0,0,0,0,0,0,0,0,0,0,0,0,0],"split_type":[0,0,0,0,0,0,0,0,0,0,0,0,0,0,0,0,0,0,0,0,0,0,0,0,0,0,0,0,0,0,0],"sum_hessian":[1.4057455E2,4.514087E1,9.543369E1,9.011732E0,3.6129135E1,5.041729E1,4.5016403E1,7.389907E0,1.621825E0,4.936884E1,1.0484498E0,3.3749146E1,1.1267257E1,2.2741275E0,5.1157794E0,8.053186E0,4.131565E1,2.2404867E1,1.1344278E1,1.2940124E0,9.973245E0,3.7576892E0,1.3580903E0,6.53269E0,1.5204961E0,4.0184273E1,1.1313808E0,1.4750642E1,7.654226E0,7.963385E0,3.3808935E0],"tree_param":{"num_deleted":"0","num_feature":"10","num_nodes":"31","size_leaf_vector":"1"}},{"base_weights":[-4.2346846E-2,1.2471231E0,-6.802012E-1,-9.7349286E-2,1.5620433E-1,-5.7950336E-1,-9.287647E-2,-3.2951477E-1,7.171439E-2,-6.155649E-1,7.143969E-2,-5.409681E-1,1.2960412E-1,-7.1851474E-1,-2.401431E-1,1.4992701E-2,-8.2293086E-2,-5.939613E-2,8.3481394E-2,1.8474733E-2,-7.6274745E-2,-5.4425914E-2,2.0578349E-2],"categories":[],"categories_nodes":[],"categories_segments":[],"categories_sizes":[],"default_left":[0,0,0,0,0,0,0,0,0,0,0,0,0,0,0,0,0,0,0,0,0,0,0],"id":8,"left_children":[1,3,5,7,-1,9,-1,11,-1,13,-1,15,17,19,21,-1,-1,-1,-1,-1,-1,-1,-1],"loss_changes":[1.11816574E2,1.9206856E1,1.7373085E0,2.0293722E0,0E0,3.5827904E0,0E0,8.529917E-1,0E0,2.381075E0,0E0,1.2366017E0,2.2050314E0,2.1925373E0,2.243988E0,0E0,0E0,0E0,0E0,0E0,0E0,0E0,0E0],"parents":[2147483647,0,0,1,1,2,2,3,3,5,5,7,7,9,9,11,11,12,12,13,13,14,14],"right_children":[2,4,6,8,-1,10,-1,12,-1,14,-1,16,18,20,22,-1,-1,-1,-1,-1,-1,-1,-1],"split_conditions":[5E0,7.39346E3,1.1577036E0,1.3996612E0,1.5620433E-1,1.1482731E0,-9.287647E-2,5E0,7.171439E-2,1.001E3,7.143969E-2,9.1058E2,2.33692E3,7E0,9.599791E-1,1.4992701E-2,-8.2293086E-2,-5.939613E-2,8.3481394E-2,1.8474733E-2,-7.6274745E-2,-5.4425914E-2,2.0578349E-2],"split_indices":[3,0,1,1,0,1,0,2,0,5,0,0,0,3,1,0,0,0,0,0,0,0,0],"split_type":[0,0,0,0,0,0,0,0,0,0,0,0,0,0,0,0,0,0,0,0,0,0,0],"sum_hessian":[1.3391682E2,4.4004093E1,8.9912735E1,8.482227E0,3.5521866E1,6.636032E1,2.3552414E1,7.0640936E0,1.418134E0,6.507102E1,1.2893007E0,4.714495E0,2.3495982E0,5.0349945E1,1.4721075E1,1.5021186E0,3.2123768E0,1.2375692E0,1.112029E0,2.202229E0,4.8147717E1,8.621092E0,6.099983E0],"tree_param":{"num_deleted":"0","num_feature":"10","num_nodes":"23","size_leaf_vector":"1"}},{"base_weights":[-4.0711276E-2,1.1657438E0,-6.540639E-1,-5.8218356E-2,1.4762613E-1,-8.0354565E-1,-4.7683167E-1,-3.2965174E-1,7.745523E-2,-4.399141E-1,-8.6162883E-1,-3.3677974E-1,-8.556438E-1,-7.2157525E-2,-7.608053E-2,-7.4523133E-1,5.50048E-2,-8.828364E-1,-7.955483E-3,-5.7633185E-1,1.1023149E-1,-9.368235E-2,-1.0517775E-2,-3.7159424E-2,4.182704E-2,-1.843147E-2,-8.550114E-2,-9.0492055E-2,-1.4765418E-2,-7.548261E-2,-2.0352347E-2,4.997292E-2,-7.894111E-2],"categories":[],"categories_nodes":[],"categories_segments":[],"categories_sizes":[],"default_left":[0,0,0,0,0,0,0,0,0,0,0,0,0,0,0,0,0,0,0,0,0,0,0,0,0,0,0,0,0,0,0,0,0],"id":9,"left_children":[1,3,5,7,-1,9,11,13,-1,15,17,19,21,-1,23,25,-1,27,-1,29,31,-1,-1,-1,-1,-1,-1,-1,-1,-1,-1,-1,-1],"loss_changes":[9.560864E1,1.6641174E1,1.8850212E0,2.4652827E0,0E0,5.7104874E-1,1.9204817E0,7.475891E-1,0E0,2.9001062E0,5.5579376E-1,3.494747E0,5.4650784E-1,0E0,1.0349724E0,2.562976E-1,0E0,4.6141815E-1,0E0,1.2453408E0,4.6062765E0,0E0,0E0,0E0,0E0,0E0,0E0,0E0,0E0,0E0,0E0,0E0,0E0],"parents":[2147483647,0,0,1,1,2,2,3,3,5,5,6,6,7,7,9,9,10,10,11,11,12,12,14,14,15,15,17,17,19,19,20,20],"right_children":[2,4,6,8,-1,10,12,14,-1,16,18,20,22,-1,24,26,-1,28,-1,30,32,-1,-1,-1,-1,-1,-1,-1,-1,-1,-1,-1,-1],"split_conditions":[5E0,9.29556E3,4E0,1.3996612E0,1.4762613E-1,7.7033716E-1,1.1577036E0,3E0,7.745523E-2,7.4849534E-1,1.183E3,9.939519E-1,1.4785079E0,-7.2157525E-2,9.984765E-1,4.77E2,5.50048E-2,1.162976E4,-7.955483E-3,9.37E2,3.38316E3,-9.368235E-2,-1.0517775E-2,-3.7159424E-2,4.182704E-2,-1.843147E-2,-8.550114E-2,-9.0492055E-2,-1.4765418E-2,-7.548261E-2,-2.0352347E-2,4.997292E-2,-7.894111E-2],"split_indices":[3,0,6,1,0,1,1,6,0,1,5,1,1,0,1,5,0,0,0,5,0,0,0,0,0,0,0,0,0,0,0,0,0],"split_type":[0,0,0,0,0,0,0,0,0,0,0,0,0,0,0,0,0,0,0,0,0,0,0,0,0,0,0,0,0,0,0,0,0],"sum_hessian":[1.2717355E2,4.2559353E1,8.46142E1,8.776733E0,3.378262E1,4.398357E1,4.063063E1,7.0748925E0,1.701841E0,7.2387853E0,3.6744785E1,3.1042753E1,9.587877E0,2.0542154E0,5.020677E0,5.721433E0,1.5173522E0,3.5649242E1,1.0955421E0,2.0023119E1,1.1019634E1,8.427891E0,1.1599867E0,3.2976956E0,1.7229816E0,1.3749795E0,4.3464537E0,3.438546E1,1.2637838E0,1.2847334E1,7.175785E0,8.000405E0,3.0192285E0],"tree_param":{"num_deleted":"0","num_feature":"10","num_nodes":"33","size_leaf_vector":"1"}},{"base_weights":[-4.1446954E-2,1.0964242E0,-6.293534E-1,-5.3007573E-2,1.3968052E-1,-7.825381E-1,-4.5335954E-1,5.863612E-1,-3.69055E-1,-4.1761878E-1,-8.4325665E-1,-3.168143E-1,-8.385731E-1,1.0947323E-1,-2.536088E-2,-8.415039E-2,3.0192718E-1,-7.257379E-1,5.011603E-2,-8.6565334E-1,-7.5685866E-3,-5.506038E-1,9.417873E-2,-6.636212E-3,-9.262047E-2,8.818021E-2,-2.7739096E-2,-1.7542887E-2,-8.389477E-2,-8.890445E-2,-1.4049592E-2,-7.023041E-2,-1.3039584E-2,4.3685623E-2,-7.722622E-2],"categories":[],"categories_nodes":[],"categories_segments":[],"categories_sizes":[],"default_left":[0,0,0,0,0,0,0,0,0,0,0,0,0,0,0,0,0,0,0,0,0,0,0,0,0,0,0,0,0,0,0,0,0,0,0],"id":10,"left_children":[1,3,5,7,-1,9,11,13,15,17,19,21,23,-1,-1,-1,25,27,-1,29,-1,31,33,-1,-1,-1,-1,-1,-1,-1,-1,-1,-1,-1,-1],"loss_changes":[8.228626E1,1.4546509E1,1.8305092E0,2.1659782E0,0E0,5.775585E-1,1.8434372E0,1.8054087E0,2.4953613E0,2.6190796E0,5.360489E-1,3.0508242E0,6.07553E-1,0E0,0E0,0E0,1.4731915E0,2.4996257E-1,0E0,4.5020103E-1,0E0,1.185924E0,3.9509835E0,0E0,0E0,0E0,0E0,0E0,0E0,0E0,0E0,0E0,0E0,0E0,0E0],"parents":[2147483647,0,0,1,1,2,2,3,3,5,5,6,6,7,7,8,8,9,9,10,10,11,11,12,12,16,16,17,17,19,19,21,21,22,22],"right_children":[2,4,6,8,-1,10,12,14,16,18,20,22,24,-1,-1,-1,26,28,-1,30,-1,32,34,-1,-1,-1,-1,-1,-1,-1,-1,-1,-1,-1,-1],"split_conditions":[5E0,9.29556E3,4E0,1E0,1.3968052E-1,7.7033716E-1,1.1577036E0,7.18E2,8.28E2,7.4849534E-1,1.183E3,9.939519E-1,6E0,1.0947323E-1,-2.536088E-2,-8.415039E-2,9.18E2,4.77E2,5.011603E-2,1.162976E4,-7.5685866E-3,1.3E1,3.38316E3,-6.636212E-3,-9.262047E-2,8.818021E-2,-2.7739096E-2,-1.7542887E-2,-8.389477E-2,-8.890445E-2,-1.4049592E-2,-7.023041E-2,-1.3039584E-2,4.3685623E-2,-7.722622E-2],"split_indices":[3,0,6,3,0,1,1,5,5,1,5,1,7,0,0,0,5,5,0,0,0,7,0,0,0,0,0,0,0,0,0,0,0,0,0],"split_type":[0,0,0,0,0,0,0,0,0,0,0,0,0,0,0,0,0,0,0,0,0,0,0,0,0,0,0,0,0,0,0,0,0,0,0],"sum_hessian":[1.2097442E2,4.09167E1,8.005772E1,8.647994E0,3.2268703E1,4.09599E1,3.909782E1,2.57779E0,6.070204E0,6.9668713E0,3.399303E1,3.021135E1,8.886469E0,1.4169294E0,1.1608607E0,3.4129534E0,2.6572502E0,5.3745756E0,1.592296E0,3.290512E1,1.0879092E0,1.9040596E1,1.1170754E1,1.0847671E0,7.8017015E0,1.0670434E0,1.5902067E0,1.3520235E0,4.022552E0,3.165794E1,1.2471795E0,1.349677E1,5.543825E0,8.360127E0,2.8106272E0],"tree_param":{"num_deleted":"0","num_feature":"10","num_nodes":"35","size_leaf_vector":"1"}},{"base_weights":[-4.166437E-2,1.0379366E0,-6.046101E-1,-4.3939672E-2,1.3295537E-1,-4.9932775E-1,-8.864157E-2,-2.9641455E-1,6.902096E-2,-5.3963727E-1,7.422388E-2,-5.002674E-1,1.137715E-1,-6.51983E-1,-1.6440195E-1,1.7854827E-2,-7.961138E-2,-5.56073E-2,6.741049E-2,2.561901E-2,-7.0279226E-2,-5.7827514E-2,1.4840751E-2],"categories":[],"categories_nodes":[],"categories_segments":[],"categories_sizes":[],"default_left":[0,0,0,0,0,0,0,0,0,0,0,0,0,0,0,0,0,0,0,0,0,0,0],"id":11,"left_children":[1,3,5,7,-1,9,-1,11,-1,13,-1,15,17,19,21,-1,-1,-1,-1,-1,-1,-1,-1],"loss_changes":[7.114523E1,1.2720634E1,1.8387947E0,1.9634691E0,0E0,3.316803E0,0E0,7.058366E-1,0E0,2.2964363E0,0E0,1.2204655E0,1.6476635E0,2.1892529E0,1.9597751E0,0E0,0E0,0E0,0E0,0E0,0E0,0E0,0E0],"parents":[2147483647,0,0,1,1,2,2,3,3,5,5,7,7,9,9,11,11,12,12,13,13,14,14],"right_children":[2,4,6,8,-1,10,-1,12,-1,14,-1,16,18,20,22,-1,-1,-1,-1,-1,-1,-1,-1],"split_conditions":[5E0,9.29556E3,1.1577036E0,1.3996612E0,1.3295537E-1,1.1482731E0,-8.864157E-2,5E0,6.902096E-2,1.001E3,7.422388E-2,9.1058E2,2.33692E3,7E0,3E0,1.7854827E-2,-7.961138E-2,-5.56073E-2,6.741049E-2,2.561901E-2,-7.0279226E-2,-5.7827514E-2,1.4840751E-2],"split_indices":[3,0,1,1,0,1,0,2,0,5,0,0,0,3,2,0,0,0,0,0,0,0,0],"split_type":[0,0,0,0,0,0,0,0,0,0,0,0,0,0,0,0,0,0,0,0,0,0,0],"sum_hessian":[1.15029465E2,3.913457E1,7.58949E1,8.489295E0,3.0645273E1,5.727055E1,1.862435E1,6.760573E0,1.7287223E0,5.6017216E1,1.253333E0,4.3694487E0,2.3911247E0,4.254244E1,1.3474777E1,1.4466386E0,2.9228098E0,1.092596E0,1.2985287E0,2.039836E0,4.05026E1,5.435071E0,8.039706E0],"tree_param":{"num_deleted":"0","num_feature":"10","num_nodes":"23","size_leaf_vector":"1"}},{"base_weights":[-3.968643E-2,9.8458E-1,-5.781574E-1,-3.9434936E-2,1.2715094E-1,-7.43242E-1,-3.9582E-1,5.3289217E-1,-3.3672997E-1,-3.6826164E-1,-8.096643E-1,-2.6266345E-1,-8.013705E-1,9.83336E-2,-2.4304476E-2,-8.191224E-2,3.0007693E-1,-6.908122E-1,4.941153E-2,-8.344949E-1,-5.3606043E-3,-4.99883E-1,1.267709E-1,-8.9886956E-2,-6.754902E-3,8.954724E-2,-2.8227154E-2,-8.14498E-2,-1.2916262E-2,-8.6080775E-2,-9.94496E-3,-6.9467E-2,-1.3317086E-2,4.4157695E-2,-7.454112E-2],"categories":[],"categories_nodes":[],"categories_segments":[],"categories_sizes":[],"default_left":[0,0,0,0,0,0,0,0,0,0,0,0,0,0,0,0,0,0,0,0,0,0,0,0,0,0,0,0,0,0,0,0,0,0,0],"id":12,"left_children":[1,3,5,7,-1,9,11,13,15,17,19,21,23,-1,-1,-1,25,27,-1,29,-1,31,33,-1,-1,-1,-1,-1,-1,-1,-1,-1,-1,-1,-1],"loss_changes":[6.1333054E1,1.1312767E1,1.8983727E0,1.7719886E0,0E0,6.25618E-1,1.7741084E0,1.4927E0,2.3263092E0,2.404034E0,5.311127E-1,2.7566867E0,5.54327E-1,0E0,0E0,0E0,1.5186757E0,2.9867864E-1,0E0,4.8746872E-1,0E0,1.2161198E0,3.5784094E0,0E0,0E0,0E0,0E0,0E0,0E0,0E0,0E0,0E0,0E0,0E0,0E0],"parents":[2147483647,0,0,1,1,2,2,3,3,5,5,6,6,7,7,8,8,9,9,10,10,11,11,12,12,16,16,17,17,19,19,21,21,22,22],"right_children":[2,4,6,8,-1,10,12,14,16,18,20,22,24,-1,-1,-1,26,28,-1,30,-1,32,34,-1,-1,-1,-1,-1,-1,-1,-1,-1,-1,-1,-1],"split_conditions":[5E0,9.29556E3,4E0,1E0,1.2715094E-1,7.7033716E-1,1.1577036E0,7.18E2,8.28E2,7.4849534E-1,1.183E3,9.939519E-1,1.4705107E0,9.83336E-2,-2.4304476E-2,-8.191224E-2,9.16E2,7.0217454E-1,4.941153E-2,1.162976E4,-5.3606043E-3,9.37E2,3.38316E3,-8.9886956E-2,-6.754902E-3,8.954724E-2,-2.8227154E-2,-8.14498E-2,-1.2916262E-2,-8.6080775E-2,-9.94496E-3,-6.9467E-2,-1.3317086E-2,4.4157695E-2,-7.454112E-2],"split_indices":[3,0,6,3,0,1,1,5,5,1,5,1,1,0,0,0,5,1,0,0,0,5,0,0,0,0,0,0,0,0,0,0,0,0,0],"split_type":[0,0,0,0,0,0,0,0,0,0,0,0,0,0,0,0,0,0,0,0,0,0,0,0,0,0,0,0,0,0,0,0,0,0,0],"sum_hessian":[1.0917164E2,3.7331703E1,7.1839935E1,8.35967E0,2.8972034E1,3.6089256E1,3.575068E1,2.5869756E0,5.772694E0,6.4154873E0,2.9673767E1,2.81543E1,7.596379E0,1.467677E0,1.1192986E0,3.1216745E0,2.6510193E0,4.813909E0,1.6015782E0,2.862976E1,1.0440071E0,1.7320251E1,1.0834048E1,6.506922E0,1.0894573E0,1.0449582E0,1.6060612E0,3.5761778E0,1.2377313E0,2.7475122E1,1.1546385E0,1.072769E1,6.5925617E0,8.323477E0,2.5105715E0],"tree_param":{"num_deleted":"0","num_feature":"10","num_nodes":"35","size_leaf_vector":"1"}},{"base_weights":[-3.9901417E-2,9.3786055E-1,-5.537273E-1,-3.189161E-2,1.2205138E-1,-4.472988E-1,-8.563387E-2,-2.6613814E-1,6.177763E-2,-4.896606E-1,7.1518816E-2,-2.6535768E-2,-6.777214E-2,-6.158323E-1,-1.5408437E-1,-3.7843045E-2,6.6541635E-2,-6.574922E-2,4.1297205E-2,-5.0242003E-2,2.932108E-2],"categories":[],"categories_nodes":[],"categories_segments":[],"categories_sizes":[],"default_left":[0,0,0,0,0,0,0,0,0,0,0,0,0,0,0,0,0,0,0,0,0],"id":13,"left_children":[1,3,5,7,-1,9,-1,11,-1,13,-1,15,-1,17,19,-1,-1,-1,-1,-1,-1],"loss_changes":[5.3219913E1,1.004554E1,1.8518047E0,1.5665723E0,0E0,2.9813461E0,0E0,7.18765E-1,0E0,2.1129303E0,0E0,1.6550039E0,0E0,1.8814497E0,2.5751507E0,0E0,0E0,0E0,0E0,0E0,0E0],"parents":[2147483647,0,0,1,1,2,2,3,3,5,5,7,7,9,9,11,11,13,13,14,14],"right_children":[2,4,6,8,-1,10,-1,12,-1,14,-1,16,-1,18,20,-1,-1,-1,-1,-1,-1],"split_conditions":[5E0,9.29556E3,1.1577036E0,1.3996612E0,1.2205138E-1,1.1482731E0,-8.563387E-2,3.27419E3,6.177763E-2,1.2E1,7.1518816E-2,2.33692E3,-6.777214E-2,1.174E3,1.95331E3,-3.7843045E-2,6.6541635E-2,-6.574922E-2,4.1297205E-2,-5.0242003E-2,2.932108E-2],"split_indices":[3,0,1,1,0,1,0,0,0,7,0,0,0,5,0,0,0,0,0,0,0],"split_type":[0,0,0,0,0,0,0,0,0,0,0,0,0,0,0,0,0,0,0,0,0],"sum_hessian":[1.03897804E2,3.550669E1,6.839111E1,8.213669E0,2.7293022E1,5.24297E1,1.5961414E1,6.4708605E0,1.7428086E0,5.1144733E1,1.2849658E0,4.7627234E0,1.708137E0,3.6562588E1,1.4582145E1,3.4574978E0,1.3052256E0,3.5486534E1,1.0760565E0,8.128643E0,6.4535027E0],"tree_param":{"num_deleted":"0","num_feature":"10","num_nodes":"21","size_leaf_vector":"1"}},{"base_weights":[-3.73685E-2,-4.0871638E-1,1.1914277E0,-4.881635E-1,6.677916E-1,3.067464E-2,1.22099414E-1,-7.915005E-1,-3.315407E-1,1.02784455E-1,-5.1768877E-2,-4.0939474E-3,-8.2360053E-1,-5.408324E-1,-6.6406704E-2,-8.575464E-2,-8.141095E-3,-7.0255965E-2,-4.7606006E-3,1.5594557E-1,-3.3656027E-2],"categories":[],"categories_nodes":[],"categories_segments":[],"categories_sizes":[],"default_left":[0,0,0,0,0,0,0,0,0,0,0,0,0,0,0,0,0,0,0,0,0],"id":14,"left_children":[1,3,5,7,9,-1,-1,11,13,-1,-1,-1,15,17,19,-1,-1,-1,-1,-1,-1],"loss_changes":[4.6002438E1,6.940778E0,2.3763275E-1,3.187008E0,2.9812727E0,0E0,0E0,5.4456615E-1,2.7165565E0,0E0,0E0,0E0,5.087843E-1,2.1666098E0,1.0636897E1,0E0,0E0,0E0,0E0,0E0,0E0],"parents":[2147483647,0,0,1,1,2,2,3,3,4,4,7,7,8,8,12,12,13,13,14,14],"right_children":[2,4,6,8,10,-1,-1,12,14,-1,-1,-1,16,18,20,-1,-1,-1,-1,-1,-1],"split_conditions":[1.7661654E0,1E0,2.0472703E0,3E0,5E0,3.067464E-2,1.22099414E-1,2.24E2,2.28996E3,1.02784455E-1,-5.1768877E-2,-4.0939474E-3,1.162E3,1.019E3,2.54013E3,-8.575464E-2,-8.141095E-3,-7.0255965E-2,-4.7606006E-3,1.5594557E-1,-3.3656027E-2],"split_indices":[1,9,1,6,3,0,0,5,0,0,0,0,5,5,0,0,0,0,0,0,0],"split_type":[0,0,0,0,0,0,0,0,0,0,0,0,0,0,0,0,0,0,0,0,0],"sum_hessian":[9.874665E1,7.634287E1,2.2403782E1,7.1604904E1,4.7379675E0,1.092387E0,2.1311396E1,2.3002188E1,4.8602715E1,3.7361882E0,1.0017794E0,1.0367326E0,2.1965456E1,2.6580631E1,2.2022083E1,2.0856123E1,1.1093333E0,1.969748E1,6.8831515E0,2.4578073E0,1.9564278E1],"tree_param":{"num_deleted":"0","num_feature":"10","num_nodes":"21","size_leaf_vector":"1"}},{"base_weights":[-3.4264773E-2,8.682632E-1,-5.023926E-1,-8.6197E-3,1.1425757E-1,-3.9196658E-1,-8.297522E-1,-4.129645E-1,3.5119304E-1,-4.3614492E-1,6.882673E-2,-8.74977E-2,-3.3387315E-2,-7.435249E-2,2.0146364E-2,8.3046216E-1,-6.108131E-2,-5.5714667E-1,-7.9111196E-2,1.0291057E-1,1.8185362E-2,3.5735708E-2,-6.1753273E-2,-7.4326806E-2,1.3313891E-2],"categories":[],"categories_nodes":[],"categories_segments":[],"categories_sizes":[],"default_left":[0,0,0,0,0,0,0,0,0,0,0,0,0,0,0,0,0,0,0,0,0,0,0,0,0],"id":15,"left_children":[1,3,5,7,-1,9,11,13,15,17,-1,-1,-1,-1,-1,19,-1,21,23,-1,-1,-1,-1,-1,-1],"loss_changes":[4.0565598E1,7.9009933E0,1.9584856E0,1.4267367E0,0E0,2.6450658E0,4.515171E-2,1.0856481E0,2.9056697E0,2.021697E0,0E0,0E0,0E0,0E0,0E0,3.148141E-1,0E0,2.1837492E0,1.9694617E0,0E0,0E0,0E0,0E0,0E0,0E0],"parents":[2147483647,0,0,1,1,2,2,3,3,5,5,6,6,7,7,8,8,9,9,15,15,17,17,18,18],"right_children":[2,4,6,8,-1,10,12,14,16,18,-1,-1,-1,-1,-1,20,-1,22,24,-1,-1,-1,-1,-1,-1],"split_conditions":[5E0,9.29556E3,1.1577036E0,9.984765E-1,1.1425757E-1,1.1482731E0,1.4785079E0,3E0,3E0,1.001E3,6.882673E-2,-8.74977E-2,-3.3387315E-2,-7.435249E-2,2.0146364E-2,8.35E2,-6.108131E-2,7E0,9E0,1.0291057E-1,1.8185362E-2,3.5735708E-2,-6.1753273E-2,-7.4326806E-2,1.3313891E-2],"split_indices":[3,0,1,1,0,1,1,3,3,5,0,0,0,0,0,5,0,3,3,0,0,0,0,0,0],"split_type":[0,0,0,0,0,0,0,0,0,0,0,0,0,0,0,0,0,0,0,0,0,0,0,0,0],"sum_hessian":[9.398115E1,3.180598E1,6.2175167E1,7.809681E0,2.39963E1,4.8135353E1,1.4039811E1,3.6077259E0,4.201955E0,4.6816933E1,1.3184221E0,1.2165783E1,1.8740289E0,2.2091184E0,1.3986074E0,2.8959427E0,1.3060124E0,3.4547874E1,1.2269056E1,1.7678752E0,1.1280674E0,1.835324E0,3.271255E1,2.365443E0,9.903614E0],"tree_param":{"num_deleted":"0","num_feature":"10","num_nodes":"25","size_leaf_vector":"1"}},{"base_weights":[-3.2922994E-2,-3.6712176E-1,1.1267742E0,-4.3832308E-1,6.022553E-1,2.6371194E-2,1.1591792E-1,-7.596206E-1,-2.798934E-1,-2.0009657E-2,8.978487E-2,-5.561968E-3,-7.9375434E-1,-1.4971101E-1,-7.4589086E-1,-8.308842E-2,-6.6907047E-3,7.0843995E-2,-2.59197E-2,-8.911108E-2,-2.1615162E-2],"categories":[],"categories_nodes":[],"categories_segments":[],"categories_sizes":[],"default_left":[0,0,0,0,0,0,0,0,0,0,0,0,0,0,0,0,0,0,0,0,0],"id":16,"left_children":[1,3,5,7,9,-1,-1,11,13,-1,-1,-1,15,17,19,-1,-1,-1,-1,-1,-1],"loss_changes":[3.5520382E1,5.1694384E0,2.6791954E-1,3.1870852E0,1.4329369E0,0E0,0E0,4.718542E-1,2.6979883E0,0E0,0E0,0E0,4.9508858E-1,3.7024817E0,5.660682E-1,0E0,0E0,0E0,0E0,0E0,0E0],"parents":[2147483647,0,0,1,1,2,2,3,3,4,4,7,7,8,8,12,12,13,13,14,14],"right_children":[2,4,6,8,10,-1,-1,12,14,-1,-1,-1,16,18,20,-1,-1,-1,-1,-1,-1],"split_conditions":[1.7661654E0,1E0,2.0472703E0,3E0,9.74143E3,2.6371194E-2,1.1591792E-1,2.3E2,1.1577036E0,-2.0009657E-2,8.978487E-2,-5.561968E-3,1.162E3,5E0,1.4172555E0,-8.308842E-2,-6.6907047E-3,7.0843995E-2,-2.59197E-2,-8.911108E-2,-2.1615162E-2],"split_indices":[1,9,1,6,0,0,0,5,1,0,0,0,5,7,1,0,0,0,0,0,0],"split_type":[0,0,0,0,0,0,0,0,0,0,0,0,0,0,0,0,0,0,0,0,0],"sum_hessian":[8.9581764E1,7.0072014E1,1.9509752E1,6.57877E1,4.284315E0,1.0367001E0,1.8473053E1,2.047316E1,4.531454E1,1.2404189E0,3.0438962E0,1.0683388E0,1.9404821E1,3.645237E1,8.862168E0,1.8325554E1,1.0792681E0,3.5055187E0,3.294685E1,6.420044E0,2.442125E0],"tree_param":{"num_deleted":"0","num_feature":"10","num_nodes":"21","size_leaf_vector":"1"}},{"base_weights":[-3.0566594E-2,-3.4570768E-1,1.0975645E0,1.8477793E-1,-4.7574726E-1,2.5065973E-2,1.1320555E-1,-1.1408064E-1,9.129257E-2,-5.880682E-1,-1.4796807E-1,2.407347E-1,-6.8858874E-1,-3.137217E-1,-7.4799436E-1,2.8416216E-1,-4.9104077E-1,-1.1001312E-2,1.0492718E-1,-8.016463E-2,-1.626314E-2,-6.267514E-2,1.3235218E-2,-2.480489E-3,-7.7760845E-2,-5.830387E-2,5.4859694E-2,3.4798365E-2,-6.612483E-2],"categories":[],"categories_nodes":[],"categories_segments":[],"categories_sizes":[],"default_left":[0,0,0,0,0,0,0,0,0,0,0,0,0,0,0,0,0,0,0,0,0,0,0,0,0,0,0,0,0],"id":17,"left_children":[1,3,5,7,9,-1,-1,11,-1,13,15,17,19,21,23,25,27,-1,-1,-1,-1,-1,-1,-1,-1,-1,-1,-1,-1],"loss_changes":[3.117208E1,4.810648E0,2.756691E-1,3.193912E0,1.947567E0,0E0,0E0,2.3990052E0,0E0,1.5564365E0,2.428579E0,2.2462687E0,1.3375759E-1,2.4226418E0,5.1755714E-1,2.0320873E0,1.511605E0,0E0,0E0,0E0,0E0,0E0,0E0,0E0,0E0,0E0,0E0,0E0,0E0],"parents":[2147483647,0,0,1,1,2,2,3,3,4,4,7,7,9,9,10,10,11,11,12,12,13,13,14,14,15,15,16,16],"right_children":[2,4,6,8,10,-1,-1,12,-1,14,16,18,20,22,24,26,28,-1,-1,-1,-1,-1,-1,-1,-1,-1,-1,-1,-1],"split_conditions":[1.7661654E0,7E0,2.0472703E0,1E0,1.001E3,2.5065973E-2,1.1320555E-1,1.0449736E0,9.129257E-2,5.15E2,1.075E3,9.931753E-1,1.4172555E0,2.28996E3,5.8264524E-1,7.297361E-1,3.9116E2,-1.1001312E-2,1.0492718E-1,-8.016463E-2,-1.626314E-2,-6.267514E-2,1.3235218E-2,-2.480489E-3,-7.7760845E-2,-5.830387E-2,5.4859694E-2,3.4798365E-2,-6.612483E-2],"split_indices":[1,3,1,9,5,0,0,1,0,5,5,1,1,0,1,1,0,0,0,0,0,0,0,0,0,0,0,0,0],"split_type":[0,0,0,0,0,0,0,0,0,0,0,0,0,0,0,0,0,0,0,0,0,0,0,0,0,0,0,0,0],"sum_hessian":[8.561286E1,6.746125E1,1.8151606E1,1.3198427E1,5.4262825E1,1.0338372E0,1.711777E1,9.955607E0,3.2428195E0,3.982261E1,1.4440214E1,6.5137177E0,3.4418898E0,1.5755829E1,2.4066782E1,6.4666343E0,7.9735804E0,5.145505E0,1.3682126E0,2.4015057E0,1.0403839E0,9.020621E0,6.735207E0,1.0190368E0,2.3047745E1,1.2295468E0,5.2370872E0,1.1685987E0,6.8049817E0],"tree_param":{"num_deleted":"0","num_feature":"10","num_nodes":"29","size_leaf_vector":"1"}},{"base_weights":[-2.8446125E-2,-3.2561275E-1,1.0706707E0,1.7505375E-1,-4.5130712E-1,2.3824267E-2,1.1075073E-1,-3.8919684E-1,5.274669E-1,-7.34105E-1,-3.0790737E-1,4.089732E-2,-6.469024E-1,5.473759E-2,9.789471E-1,-8.1842236E-2,-1.669782E-1,-1.8161654E-1,-7.623076E-1,-2.1982E-2,-7.5973414E-2,-3.67331E-2,6.563741E-2,1.2753002E-1,4.0328983E-2,3.165361E-2,-5.7508733E-2,-2.8894886E-2,7.893992E-2,-8.6944394E-2,-5.6114057E-3],"categories":[],"categories_nodes":[],"categories_segments":[],"categories_sizes":[],"default_left":[0,0,0,0,0,0,0,0,0,0,0,0,0,0,0,0,0,0,0,0,0,0,0,0,0,0,0,0,0,0,0],"id":18,"left_children":[1,3,5,7,9,-1,-1,11,13,15,17,-1,19,21,23,-1,25,27,29,-1,-1,-1,-1,-1,-1,-1,-1,-1,-1,-1,-1],"loss_changes":[2.7410484E1,4.231646E0,2.8400612E-1,2.9817133E0,1.9242868E0,0E0,0E0,1.4870629E0,1.871352E0,6.8192196E-1,1.9794836E0,0E0,6.815839E-2,1.6288736E0,2.6259184E-1,0E0,8.67151E-1,3.3748107E0,5.348282E-1,0E0,0E0,0E0,0E0,0E0,0E0,0E0,0E0,0E0,0E0,0E0,0E0],"parents":[2147483647,0,0,1,1,2,2,3,3,4,4,7,7,8,8,9,9,10,10,12,12,13,13,14,14,16,16,17,17,18,18],"right_children":[2,4,6,8,10,-1,-1,12,14,16,18,-1,20,22,24,-1,26,28,30,-1,-1,-1,-1,-1,-1,-1,-1,-1,-1,-1,-1],"split_conditions":[1.7661654E0,7E0,2.0472703E0,2.33692E3,3E0,2.3824267E-2,1.1075073E-1,3.11E2,4E0,1.043E3,1.1577036E0,4.089732E-2,7E0,1E0,4.20256E3,-8.1842236E-2,9E0,1.1241847E0,1.4616606E0,-2.1982E-2,-7.5973414E-2,-3.67331E-2,6.563741E-2,1.2753002E-1,4.0328983E-2,3.165361E-2,-5.7508733E-2,-2.8894886E-2,7.893992E-2,-8.6944394E-2,-5.6114057E-3],"split_indices":[1,3,1,0,6,0,0,5,6,5,1,0,7,9,0,0,7,1,1,0,0,0,0,0,0,0,0,0,0,0,0],"split_type":[0,0,0,0,0,0,0,0,0,0,0,0,0,0,0,0,0,0,0,0,0,0,0,0,0,0,0,0,0,0,0],"sum_hessian":[8.185405E1,6.498728E1,1.6866766E1,1.2962458E1,5.2024822E1,1.0312059E0,1.583556E1,4.9433136E0,8.019144E0,1.6118443E1,3.5906384E1,1.0632422E0,3.8800714E0,4.465116E0,3.5540278E0,1.3646456E1,2.471986E0,2.9192604E1,6.713777E0,1.4269806E0,2.4530907E0,2.8530507E0,1.6120653E0,1.5438563E0,2.0101714E0,1.2341679E0,1.2378181E0,2.6919458E1,2.2731466E0,5.6286826E0,1.0850942E0],"tree_param":{"num_deleted":"0","num_feature":"10","num_nodes":"31","size_leaf_vector":"1"}},{"base_weights":[-2.5514409E-2,-3.047922E-1,1.0456345E0,1.6804975E-1,-4.270498E-1,2.2643084E-2,1.0850706E-1,-1.0148327E-1,8.536651E-2,-7.13469E-1,-2.870108E-1,2.2625005E-1,-6.626065E-1,-8.0108546E-2,-1.5972273E-1,-1.6532128E-1,-7.4448985E-1,-1.0297389E-2,9.439122E-2,-7.794625E-2,-1.47017315E-2,2.9405544E-2,-5.6017794E-2,-3.1095525E-2,4.6577204E-2,-8.5656755E-2,-5.3348085E-3],"categories":[],"categories_nodes":[],"categories_segments":[],"categories_sizes":[],"default_left":[0,0,0,0,0,0,0,0,0,0,0,0,0,0,0,0,0,0,0,0,0,0,0,0,0,0,0],"id":19,"left_children":[1,3,5,7,9,-1,-1,11,-1,13,15,17,19,-1,21,23,25,-1,-1,-1,-1,-1,-1,-1,-1,-1,-1],"loss_changes":[2.4088396E1,3.7599368E0,2.9246712E-1,2.641377E0,1.8398314E0,0E0,0E0,2.139193E0,0E0,6.5152836E-1,1.8759923E0,1.8867762E0,1.410451E-1,0E0,7.905255E-1,2.8698916E0,5.166311E-1,0E0,0E0,0E0,0E0,0E0,0E0,0E0,0E0,0E0,0E0],"parents":[2147483647,0,0,1,1,2,2,3,3,4,4,7,7,9,9,10,10,11,11,12,12,14,14,15,15,16,16],"right_children":[2,4,6,8,10,-1,-1,12,-1,14,16,18,20,-1,22,24,26,-1,-1,-1,-1,-1,-1,-1,-1,-1,-1],"split_conditions":[1.7661654E0,7E0,2.0472703E0,1E0,3E0,2.2643084E-2,1.0850706E-1,1.0449736E0,8.536651E-2,1.043E3,1.1577036E0,9.931753E-1,1.4172555E0,-8.0108546E-2,9E0,1.0854473E0,1.4616606E0,-1.0297389E-2,9.439122E-2,-7.794625E-2,-1.47017315E-2,2.9405544E-2,-5.6017794E-2,-3.1095525E-2,4.6577204E-2,-8.5656755E-2,-5.3348085E-3],"split_indices":[1,3,1,9,6,0,0,1,0,5,1,1,1,0,7,1,1,0,0,0,0,0,0,0,0,0,0],"split_type":[0,0,0,0,0,0,0,0,0,0,0,0,0,0,0,0,0,0,0,0,0,0,0,0,0,0,0],"sum_hessian":[7.845795E1,6.279978E1,1.5658165E1,1.2824675E1,4.9975105E1,1.0287925E0,1.4629372E1,9.8172455E0,3.0074296E0,1.5066034E1,3.4909073E1,6.574241E0,3.2430038E0,1.2622221E1,2.4438126E0,2.8649637E1,6.2594337E0,5.0939374E0,1.4803038E0,2.2265713E0,1.0164325E0,1.2701882E0,1.1736243E0,2.3690083E1,4.959556E0,5.180067E0,1.0793669E0],"tree_param":{"num_deleted":"0","num_feature":"10","num_nodes":"27","size_leaf_vector":"1"}},{"base_weights":[-2.379438E-2,-2.8635252E-1,1.0220791E0,-6.4911985E-1,-1.3176307E-1,2.1519547E-2,1.0643643E-1,-7.1645534E-1,-1.20438606E-1,-4.2178288E-1,1.5763234E-1,-1.10573746E-1,-8.103993E-1,-5.860554E-2,4.1660234E-2,-6.054459E-1,5.3680327E-2,1.5305094E0,-8.3075896E-2,3.775181E-2,-5.4657336E-2,-8.7005E-2,-3.4323044E-3,4.1864704E-2,-7.028848E-2,-7.504266E-2,6.4595215E-2,2.3160748E-1,-9.391676E-3,8.6421624E-2,-3.4080565E-2],"categories":[],"categories_nodes":[],"categories_segments":[],"categories_sizes":[],"default_left":[0,0,0,0,0,0,0,0,0,0,0,0,0,0,0,0,0,0,0,0,0,0,0,0,0,0,0,0,0,0,0],"id":20,"left_children":[1,3,5,7,9,-1,-1,11,13,15,17,19,21,-1,-1,23,25,27,29,-1,-1,-1,-1,-1,-1,-1,-1,-1,-1,-1,-1],"loss_changes":[2.1240671E1,3.3778653E0,3.0071068E-1,5.6157875E-1,3.8063498E0,0E0,0E0,8.1772995E-1,1.0588632E0,1.9997234E0,7.738205E0,9.081593E-1,6.0171986E-1,0E0,0E0,1.923954E0,3.911733E0,4.667554E0,5.310319E0,0E0,0E0,0E0,0E0,0E0,0E0,0E0,0E0,0E0,0E0,0E0,0E0],"parents":[2147483647,0,0,1,1,2,2,3,3,4,4,7,7,8,8,9,9,10,10,11,11,12,12,15,15,16,16,17,17,18,18],"right_children":[2,4,6,8,10,-1,-1,12,14,16,18,20,22,-1,-1,24,26,28,30,-1,-1,-1,-1,-1,-1,-1,-1,-1,-1,-1,-1],"split_conditions":[1.7661654E0,3E0,2.0472703E0,7.16781E3,2.28996E3,2.1519547E-2,1.0643643E-1,3.89E2,8.15E2,1.019E3,2.54013E3,1.0160677E0,1.157E3,-5.860554E-2,4.1660234E-2,3E0,3E0,6.89E2,4E0,3.775181E-2,-5.4657336E-2,-8.7005E-2,-3.4323044E-3,4.1864704E-2,-7.028848E-2,-7.504266E-2,6.4595215E-2,2.3160748E-1,-9.391676E-3,8.6421624E-2,-3.4080565E-2],"split_indices":[1,6,1,0,0,0,0,5,5,5,0,1,5,0,0,3,2,5,3,0,0,0,0,0,0,0,0,0,0,0,0],"split_type":[0,0,0,0,0,0,0,0,0,0,0,0,0,0,0,0,0,0,0,0,0,0,0,0,0,0,0,0,0,0,0],"sum_hessian":[7.528477E1,6.0758137E1,1.4526634E1,1.7199034E1,4.3559105E1,1.0265821E0,1.35000515E1,1.4940909E1,2.2581239E0,2.1527597E1,2.2031507E1,2.2978952E0,1.2643014E1,1.1606059E0,1.097518E0,1.5331807E1,6.1957893E0,2.4872336E0,1.9544273E1,1.1474653E0,1.1504297E0,1.1628163E1,1.0148509E0,1.0456285E0,1.4286179E1,2.5146735E0,3.6811156E0,1.3894981E0,1.0977356E0,3.6768246E0,1.5867448E1],"tree_param":{"num_deleted":"0","num_feature":"10","num_nodes":"31","size_leaf_vector":"1"}},{"base_weights":[-2.0097677E-2,-2.6650444E-1,9.996929E-1,-6.2730473E-1,-1.17881395E-1,2.0450933E-2,1.0450717E-1,-7.560728E-1,-2.6929536E-1,-3.9814568E-1,1.527432E-1,-9.195112E-2,-2.3309319E-1,-6.791214E-2,8.042052E-2,-6.5156966E-1,-1.996485E-2,1.3150804E0,-7.422251E-2,4.738647E-2,-6.025311E-2,4.548135E-2,-5.2981418E-2,-1.1409E-2,-9.157088E-2,1.3742682E-1,-6.327777E-2,1.9134675E-1,-8.939116E-3,5.9828557E-2,-3.986494E-2],"categories":[],"categories_nodes":[],"categories_segments":[],"categories_sizes":[],"default_left":[0,0,0,0,0,0,0,0,0,0,0,0,0,0,0,0,0,0,0,0,0,0,0,0,0,0,0,0,0,0,0],"id":21,"left_children":[1,3,5,7,9,-1,-1,11,13,15,17,-1,19,-1,21,23,25,27,29,-1,-1,-1,-1,-1,-1,-1,-1,-1,-1,-1,-1],"loss_changes":[1.8681005E1,3.1332965E0,3.0846977E-1,5.901561E-1,3.3671467E0,0E0,0E0,8.207903E-1,9.300287E-1,2.0659647E0,6.138971E0,0E0,1.388486E0,0E0,1.1982018E0,1.7349944E0,9.187493E0,3.3600783E0,4.6251802E0,0E0,0E0,0E0,0E0,0E0,0E0,0E0,0E0,0E0,0E0,0E0,0E0],"parents":[2147483647,0,0,1,1,2,2,3,3,4,4,7,7,8,8,9,9,10,10,12,12,14,14,15,15,16,16,17,17,18,18],"right_children":[2,4,6,8,10,-1,-1,12,14,16,18,-1,20,-1,22,24,26,28,30,-1,-1,-1,-1,-1,-1,-1,-1,-1,-1,-1,-1],"split_conditions":[1.7661654E0,3E0,2.0472703E0,9.27E2,2.28996E3,2.0450933E-2,1.0450717E-1,5E0,9.568479E-1,1.0016042E0,2.54013E3,-9.195112E-2,4.39E2,-6.791214E-2,9E0,7.3879725E-1,1.0449736E0,6.89E2,7E0,4.738647E-2,-6.025311E-2,4.548135E-2,-5.2981418E-2,-1.1409E-2,-9.157088E-2,1.3742682E-1,-6.327777E-2,1.9134675E-1,-8.939116E-3,5.9828557E-2,-3.986494E-2],"split_indices":[1,6,1,5,0,0,0,2,1,1,0,0,5,0,7,1,1,5,3,0,0,0,0,0,0,0,0,0,0,0,0],"split_type":[0,0,0,0,0,0,0,0,0,0,0,0,0,0,0,0,0,0,0,0,0,0,0,0,0,0,0,0,0,0,0],"sum_hessian":[7.2282166E1,5.8810703E1,1.347146E1,1.6218227E1,4.2592476E1,1.0245609E0,1.2446899E1,1.111024E1,5.1079884E0,2.0692104E1,2.190037E1,7.8871746E0,3.2230656E0,1.9181813E0,3.1898072E0,1.1956794E1,8.735311E0,2.7945802E0,1.910579E1,1.0091972E0,2.2138681E0,2.1347685E0,1.0550386E0,4.41168E0,7.545113E0,2.2877681E0,6.447543E0,1.7055186E0,1.0890616E0,5.9427876E0,1.3163002E1],"tree_param":{"num_deleted":"0","num_feature":"10","num_nodes":"31","size_leaf_vector":"1"}},{"base_weights":[-1.8369345E-2,-2.4931282E-1,9.782163E-1,-6.062339E-1,-1.06498465E-1,1.9434642E-2,1.026927E-1,-7.355576E-1,-2.601064E-1,-3.753804E-1,1.4521803E-1,-9.079306E-2,-2.1723622E-1,-6.627606E-2,6.9575265E-2,-6.287702E-1,-1.361946E-2,9.33884E-1,-1.2876058E-1,4.7579374E-2,-5.8897294E-2,4.141021E-2,-5.1615264E-2,-1.0573017E-2,-9.0348445E-2,1.1730446E-1,-6.095701E-2,1.3796504E-1,1.5679227E-2,4.9454283E-2,-4.5609903E-2],"categories":[],"categories_nodes":[],"categories_segments":[],"categories_sizes":[],"default_left":[0,0,0,0,0,0,0,0,0,0,0,0,0,0,0,0,0,0,0,0,0,0,0,0,0,0,0,0,0,0,0],"id":22,"left_children":[1,3,5,7,9,-1,-1,11,13,15,17,-1,19,-1,21,23,25,27,29,-1,-1,-1,-1,-1,-1,-1,-1,-1,-1,-1,-1],"loss_changes":[1.6499231E1,2.8988838E0,3.1553745E-1,5.4283905E-1,2.9469545E0,0E0,0E0,8.206706E-1,8.4369415E-1,1.9111416E0,5.0454097E0,0E0,1.3513863E0,0E0,1.0630039E0,1.6709132E0,7.5384603E0,1.8613796E0,3.8564048E0,0E0,0E0,0E0,0E0,0E0,0E0,0E0,0E0,0E0,0E0,0E0,0E0],"parents":[2147483647,0,0,1,1,2,2,3,3,4,4,7,7,8,8,9,9,10,10,12,12,14,14,15,15,16,16,17,17,18,18],"right_children":[2,4,6,8,10,-1,-1,12,14,16,18,-1,20,-1,22,24,26,28,30,-1,-1,-1,-1,-1,-1,-1,-1,-1,-1,-1,-1],"split_conditions":[1.7661654E0,3E0,2.0472703E0,9.27E2,2.28996E3,1.9434642E-2,1.026927E-1,5E0,9.568479E-1,1.0016042E0,2.84153E3,-9.079306E-2,4.08E2,-6.627606E-2,9E0,7.3879725E-1,1.0449736E0,1.0300096E0,7E0,4.7579374E-2,-5.8897294E-2,4.141021E-2,-5.1615264E-2,-1.0573017E-2,-9.0348445E-2,1.1730446E-1,-6.095701E-2,1.3796504E-1,1.5679227E-2,4.9454283E-2,-4.5609903E-2],"split_indices":[1,6,1,5,0,0,0,2,1,1,0,0,5,0,7,1,1,1,3,0,0,0,0,0,0,0,0,0,0,0,0],"split_type":[0,0,0,0,0,0,0,0,0,0,0,0,0,0,0,0,0,0,0,0,0,0,0,0,0,0,0,0,0,0,0],"sum_hessian":[6.962785E1,5.713705E1,1.2490804E1,1.5401292E1,4.173576E1,1.0227151E0,1.1468089E1,1.0393034E1,5.0082574E0,1.9942272E1,2.1793488E1,7.2352157E0,3.1578183E0,1.7997916E0,3.2084658E0,1.1293697E1,8.648576E0,4.9979496E0,1.6795538E1,1.0047461E0,2.1530724E0,2.2046795E0,1.0037862E0,4.365986E0,6.927711E0,2.5675938E0,6.0809817E0,2.6833093E0,2.31464E0,5.6073914E0,1.1188147E1],"tree_param":{"num_deleted":"0","num_feature":"10","num_nodes":"31","size_leaf_vector":"1"}},{"base_weights":[-1.7405495E-2,-2.2297835E-1,1.009705E-1,-2.9174942E-1,5.574012E-1,-6.3129586E-1,-1.5549698E-1,8.143059E-2,-1.3363642E-2,-1.2719885E-1,-7.133421E-1,-4.0349066E-2,-6.489848E-1,-5.7634015E-2,4.205385E-2,-7.645304E-2,-1.617787E-2,7.038659E-2,-1.5068114E-2,-1.3882927E-2,-8.3203696E-2],"categories":[],"categories_nodes":[],"categories_segments":[],"categories_sizes":[],"default_left":[0,0,0,0,0,0,0,0,0,0,0,0,0,0,0,0,0,0,0,0,0],"id":23,"left_children":[1,3,-1,5,7,9,11,-1,-1,13,15,17,19,-1,-1,-1,-1,-1,-1,-1,-1],"loss_changes":[1.4633487E1,3.2580462E0,0E0,2.384502E0,9.9910057E-1,5.313244E-1,2.2253315E0,0E0,0E0,1.0597007E0,2.3539305E-1,2.831535E0,5.783315E-1,0E0,0E0,0E0,0E0,0E0,0E0,0E0,0E0],"parents":[2147483647,0,0,1,1,3,3,4,4,5,5,6,6,9,9,10,10,11,11,12,12],"right_children":[2,4,-1,6,8,10,12,-1,-1,14,16,18,20,-1,-1,-1,-1,-1,-1,-1,-1],"split_conditions":[2.0472703E0,1E0,1.009705E-1,3E0,4E0,5.502E2,1.1577036E0,8.143059E-2,-1.3363642E-2,2E0,2.1E1,5E0,2E0,-5.7634015E-2,4.205385E-2,-7.645304E-2,-1.617787E-2,7.038659E-2,-1.5068114E-2,-1.3882927E-2,-8.3203696E-2],"split_indices":[1,9,0,6,3,0,1,0,0,6,3,7,2,0,0,0,0,0,0,0,0],"split_type":[0,0,0,0,0,0,0,0,0,0,0,0,0,0,0,0,0,0,0,0,0],"sum_hessian":[6.723876E1,5.667779E1,1.056097E1,5.2663002E1,4.01479E0,1.4040424E1,3.8622578E1,2.7966921E0,1.218098E0,2.3223147E0,1.171811E1,3.219267E1,6.4299097E0,1.2473089E0,1.0750058E0,1.0369633E1,1.3484769E0,3.4618926E0,2.8730776E1,2.1622524E0,4.2676573E0],"tree_param":{"num_deleted":"0","num_feature":"10","num_nodes":"21","size_leaf_vector":"1"}},{"base_weights":[-1.6014894E-2,-2.0812477E-1,9.932145E-2,-2.7296162E-1,5.3120756E-1,-1.6286363E-1,-6.794794E-1,7.835382E-2,-1.2665664E-2,-3.4975722E-1,1.1690846E-1,-8.0032396E-1,-2.3344445E-1,-5.6750644E-2,-3.951335E-3,8.010435E-2,-1.3092249E-2,-1.9814366E-2,-9.020715E-2,-6.409832E-2,4.2741183E-2],"categories":[],"categories_nodes":[],"categories_segments":[],"categories_sizes":[],"default_left":[0,0,0,0,0,0,0,0,0,0,0,0,0,0,0,0,0,0,0,0,0],"id":24,"left_children":[1,3,-1,5,7,9,11,-1,-1,13,15,17,19,-1,-1,-1,-1,-1,-1,-1,-1],"loss_changes":[1.2996747E1,2.841181E0,0E0,2.2333045E0,9.083663E-1,2.2644417E0,3.9776516E-1,0E0,0E0,1.7167916E0,3.1195319E0,3.188939E-1,1.2768892E0,0E0,0E0,0E0,0E0,0E0,0E0,0E0,0E0],"parents":[2147483647,0,0,1,1,3,3,4,4,5,5,6,6,9,9,10,10,11,11,12,12],"right_children":[2,4,-1,6,8,10,12,-1,-1,14,16,18,20,-1,-1,-1,-1,-1,-1,-1,-1],"split_conditions":[2.0472703E0,1E0,9.932145E-2,1.1577036E0,4E0,9.939519E-1,5E0,7.835382E-2,-1.2665664E-2,2.28996E3,4.26E2,1.2063513E0,1.4071511E0,-5.6750644E-2,-3.951335E-3,8.010435E-2,-1.3092249E-2,-1.9814366E-2,-9.020715E-2,-6.409832E-2,4.2741183E-2],"split_indices":[1,9,0,1,3,1,6,0,0,0,5,1,1,0,0,0,0,0,0,0,0],"split_type":[0,0,0,0,0,0,0,0,0,0,0,0,0,0,0,0,0,0,0,0,0],"sum_hessian":[6.496783E1,5.5245464E1,9.722363E0,5.137119E1,3.8742738E0,4.1525414E1,9.845777E0,2.6621463E0,1.2121274E0,2.4745052E1,1.6780361E1,7.121922E0,2.7238545E0,1.4052719E1,1.0692333E1,3.8686824E0,1.2911679E1,1.4554464E0,5.666476E0,1.7034426E0,1.020412E0],"tree_param":{"num_deleted":"0","num_feature":"10","num_nodes":"21","size_leaf_vector":"1"}},{"base_weights":[-1.4474625E-2,-1.937728E-1,9.772916E-2,-5.627781E-1,-5.764565E-2,-7.0174223E-1,-2.0329395E-1,-3.235258E-1,1.7116144E-1,-8.889039E-2,-1.7793818E-1,1.5108804E-1,-5.7962578E-2,-5.227169E-1,1.3322979E-1,1.0185719E0,-2.437784E-2,4.0588178E-2,-6.298974E-2,4.4744696E-2,-1.8931897E-2,1.1707224E-2,-7.389345E-2,-7.04754E-2,6.65467E-2,1.6317473E-1,5.2259415E-3,7.234549E-2,-2.7368886E-2],"categories":[],"categories_nodes":[],"categories_segments":[],"categories_sizes":[],"default_left":[0,0,0,0,0,0,0,0,0,0,0,0,0,0,0,0,0,0,0,0,0,0,0,0,0,0,0,0,0],"id":25,"left_children":[1,3,-1,5,7,9,11,13,15,-1,17,19,-1,21,23,25,27,-1,-1,-1,-1,-1,-1,-1,-1,-1,-1,-1,-1],"loss_changes":[1.1551863E1,2.727759E0,0E0,5.9139013E-1,2.5651548E0,8.407793E-1,8.216796E-1,1.837213E0,3.8074036E0,0E0,1.2933556E0,4.5072675E-1,0E0,1.9860051E0,3.4556782E0,2.4644775E0,3.8381724E0,0E0,0E0,0E0,0E0,0E0,0E0,0E0,0E0,0E0,0E0,0E0,0E0],"parents":[2147483647,0,0,1,1,3,3,4,4,5,5,6,6,7,7,8,8,10,10,11,11,13,13,14,14,15,15,16,16],"right_children":[2,4,-1,6,8,10,12,14,16,-1,18,20,-1,22,24,26,28,-1,-1,-1,-1,-1,-1,-1,-1,-1,-1,-1,-1],"split_conditions":[2.0472703E0,3E0,9.772916E-2,9.27E2,2.28996E3,5E0,4E0,1.019E3,2.54013E3,-8.889039E-2,3E0,1.047E3,-5.7962578E-2,3.57E2,3E0,4.99E2,4E0,4.0588178E-2,-6.298974E-2,4.4744696E-2,-1.8931897E-2,1.1707224E-2,-7.389345E-2,-7.04754E-2,6.65467E-2,1.6317473E-1,5.2259415E-3,7.234549E-2,-2.7368886E-2],"split_indices":[1,6,0,5,0,2,2,5,0,0,7,5,0,5,2,5,3,0,0,0,0,0,0,0,0,0,0,0,0],"split_type":[0,0,0,0,0,0,0,0,0,0,0,0,0,0,0,0,0,0,0,0,0,0,0,0,0,0,0,0,0],"sum_hessian":[6.2898163E1,5.394944E1,8.948724E0,1.3694096E1,4.0255344E1,9.189624E0,4.5044713E0,1.8427784E1,2.1827559E1,6.2569304E0,2.932694E0,2.628142E0,1.8763292E0,1.2731266E1,5.696517E0,3.3032393E0,1.852432E1,1.3241584E0,1.6085356E0,1.2368722E0,1.3912699E0,3.3315969E0,9.39967E0,2.0868032E0,3.6097138E0,1.5995858E0,1.7036536E0,4.156044E0,1.4368276E1],"tree_param":{"num_deleted":"0","num_feature":"10","num_nodes":"29","size_leaf_vector":"1"}},{"base_weights":[-1.2659284E-2,-1.8000619E-1,9.617969E-2,-5.413331E-1,-5.0476912E-2,-6.824121E-1,-1.91838E-1,-3.0459207E-1,1.6307394E-1,-1.0446927E-1,-8.473225E-2,-6.174468E-2,1.2943903E-1,-5.701874E-1,4.504806E-2,7.543619E-1,-7.0990145E-2,4.108123E-2,-5.5146076E-2,4.357743E-2,-3.7932098E-2,-3.724953E-3,-8.783995E-2,1.0002287E-1,-5.492839E-2,1.20581985E-1,1.7585644E-2,4.759903E-2,-4.0476862E-2],"categories":[],"categories_nodes":[],"categories_segments":[],"categories_sizes":[],"default_left":[0,0,0,0,0,0,0,0,0,0,0,0,0,0,0,0,0,0,0,0,0,0,0,0,0,0,0,0,0],"id":26,"left_children":[1,3,-1,5,7,9,11,13,15,17,-1,-1,19,21,23,25,27,-1,-1,-1,-1,-1,-1,-1,-1,-1,-1,-1,-1],"loss_changes":[1.0274382E1,2.4862976E0,0E0,5.628109E-1,2.2549253E0,8.2953787E-1,8.233931E-1,1.78126E0,3.199706E0,9.817865E-1,0E0,0E0,7.7702105E-1,1.7440593E0,5.708631E0,1.4941194E0,3.3328142E0,0E0,0E0,0E0,0E0,0E0,0E0,0E0,0E0,0E0,0E0,0E0,0E0],"parents":[2147483647,0,0,1,1,3,3,4,4,5,5,6,6,7,7,8,8,9,9,12,12,13,13,14,14,15,15,16,16],"right_children":[2,4,-1,6,8,10,12,14,16,18,-1,-1,20,22,24,26,28,-1,-1,-1,-1,-1,-1,-1,-1,-1,-1,-1,-1],"split_conditions":[2.0472703E0,3E0,9.617969E-2,9.27E2,2.28996E3,3.89E2,9.568479E-1,1.0016042E0,2.84153E3,1.0160677E0,-8.473225E-2,-6.174468E-2,4E0,7.3879725E-1,1.0449736E0,9.6398336E-1,7E0,4.108123E-2,-5.5146076E-2,4.357743E-2,-3.7932098E-2,-3.724953E-3,-8.783995E-2,1.0002287E-1,-5.492839E-2,1.20581985E-1,1.7585644E-2,4.759903E-2,-4.0476862E-2],"split_indices":[1,6,0,5,0,5,1,1,0,1,0,0,2,1,1,1,3,0,0,0,0,0,0,0,0,0,0,0,0],"split_type":[0,0,0,0,0,0,0,0,0,0,0,0,0,0,0,0,0,0,0,0,0,0,0,0,0,0,0,0,0],"sum_hessian":[6.0943424E1,5.270711E1,8.23631E0,1.30696335E1,3.9637478E1,8.632449E0,4.4371843E0,1.7905035E1,2.1732445E1,2.2789965E0,6.3534527E0,1.5121397E0,2.9250448E0,9.817009E0,8.088027E0,5.532775E0,1.6199669E1,1.0962285E0,1.1827679E0,1.915275E0,1.0097699E0,4.007826E0,5.8091826E0,2.840297E0,5.24773E0,2.4985607E0,3.034214E0,5.9776735E0,1.0221995E1],"tree_param":{"num_deleted":"0","num_feature":"10","num_nodes":"29","size_leaf_vector":"1"}},{"base_weights":[-1.2042777E-2,-2.2381218E-1,7.0094734E-1,-4.512758E-1,-3.489156E-2,9.518986E-2,5.7538413E-2,1.3841921E-3,-5.509374E-1,8.353689E-2,-4.6868888E-1,6.0253717E-2,-4.5890585E-1,-6.906446E-2,7.520817E-2,1.2230177E-2,-6.417449E-1,-1.15043335E-1,5.454272E-1,2.356607E-2,-7.535426E-2,-8.842907E-3,-5.9800144E-2,-6.829994E-2,-3.5691874E-3,-3.2566573E-2,3.2765448E-2,-5.302855E-2,8.2484156E-2,-9.258746E-3,1.3559359E-2],"categories":[],"categories_nodes":[],"categories_segments":[],"categories_sizes":[],"default_left":[0,0,0,0,0,0,0,0,0,0,0,0,0,0,0,0,0,0,0,0,0,0,0,0,0,0,0,0,0,0,0],"id":27,"left_children":[1,3,5,7,9,-1,11,13,15,17,19,-1,21,-1,-1,-1,23,25,27,29,-1,-1,-1,-1,-1,-1,-1,-1,-1,-1,-1],"loss_changes":[9.247185E0,2.0115275E0,2.2103968E0,9.6260166E-1,1.4188119E0,0E0,1.6840259E0,3.0362306E0,1.1468916E0,2.075564E0,8.4653974E-1,0E0,1.0868645E-1,0E0,0E0,0E0,3.646388E-1,1.6146634E0,2.4729106E0,5.3364035E-2,0E0,0E0,0E0,0E0,0E0,0E0,0E0,0E0,0E0,0E0,0E0],"parents":[2147483647,0,0,1,1,2,2,3,3,4,4,6,6,7,7,8,8,9,9,10,10,12,12,16,16,17,17,18,18,19,19],"right_children":[2,4,6,8,10,-1,12,14,16,18,20,-1,22,-1,-1,-1,24,26,28,30,-1,-1,-1,-1,-1,-1,-1,-1,-1,-1,-1],"split_conditions":[8.68801E3,4E0,4E0,7.7033716E-1,3.48725E3,9.518986E-2,1.01128E4,7.0217454E-1,3E0,2.4382E3,1.2E1,6.0253717E-2,1.1284001E0,-6.906446E-2,7.520817E-2,1.2230177E-2,6.78796E3,1.008E3,8.6220324E-1,4.79264E3,-7.535426E-2,-8.842907E-3,-5.9800144E-2,-6.829994E-2,-3.5691874E-3,-3.2566573E-2,3.2765448E-2,-5.302855E-2,8.2484156E-2,-9.258746E-3,1.3559359E-2],"split_indices":[0,6,3,1,0,0,0,1,3,0,3,0,1,0,0,0,0,5,1,0,0,0,0,0,0,0,0,0,0,0,0],"split_type":[0,0,0,0,0,0,0,0,0,0,0,0,0,0,0,0,0,0,0,0,0,0,0,0,0,0,0,0,0,0,0],"sum_hessian":[5.9204884E1,4.617598E1,1.3028906E1,2.032075E1,2.585523E1,9.028158E0,4.000748E0,3.8446367E0,1.6476112E1,2.0944675E1,4.910554E0,1.8654515E0,2.1352968E0,2.0421145E0,1.8025223E0,1.9169775E0,1.45591345E1,1.5172501E1,5.772175E0,2.136223E0,2.774331E0,1.0293633E0,1.1059334E0,1.3512373E1,1.0467616E0,1.0460208E1,4.712293E0,1.00504E0,4.7671347E0,1.1339936E0,1.0022295E0],"tree_param":{"num_deleted":"0","num_feature":"10","num_nodes":"31","size_leaf_vector":"1"}},{"base_weights":[-1.1927742E-2,-1.5907466E-1,9.338779E-2,-5.0347567E-1,-4.190606E-2,-6.4936113E-1,-1.594285E-1,-2.7405643E-1,1.4701308E-1,-8.606099E-2,-1.1262071E-1,-5.9368294E-2,1.5333341E-1,-5.412499E-1,6.296783E-2,8.04086E-1,-2.7942589E-2,-6.0163487E-2,4.774387E-2,-2.9999895E-2,4.4270836E-2,-2.7032339E-3,-8.627596E-2,8.850027E-2,-5.1532805E-2,-1.952811E-3,1.3164331E-1,5.8185626E-2,-2.3817465E-2],"categories":[],"categories_nodes":[],"categories_segments":[],"categories_sizes":[],"default_left":[0,0,0,0,0,0,0,0,0,0,0,0,0,0,0,0,0,0,0,0,0,0,0,0,0,0,0,0,0],"id":28,"left_children":[1,3,-1,5,7,9,11,13,15,-1,17,-1,19,21,23,25,27,-1,-1,-1,-1,-1,-1,-1,-1,-1,-1,-1,-1],"loss_changes":[8.300658E0,2.0588493E0,0E0,5.486374E-1,1.7748743E0,9.007678E-1,7.965317E-1,1.663457E0,2.6040184E0,0E0,1.3362924E0,0E0,6.3319194E-1,1.6624718E0,4.6856112E0,2.0324638E0,2.5360026E0,0E0,0E0,0E0,0E0,0E0,0E0,0E0,0E0,0E0,0E0,0E0,0E0],"parents":[2147483647,0,0,1,1,3,3,4,4,5,5,6,6,7,7,8,8,10,10,12,12,13,13,14,14,15,15,16,16],"right_children":[2,4,-1,6,8,10,12,14,16,-1,18,-1,20,22,24,26,28,-1,-1,-1,-1,-1,-1,-1,-1,-1,-1,-1,-1],"split_conditions":[2.0472703E0,3E0,9.338779E-2,9.27E2,2.28996E3,5E0,9.568479E-1,1.0016042E0,2.54013E3,-8.606099E-2,2E0,-5.9368294E-2,1.1E1,7.3879725E-1,1.0449736E0,1.3E1,4E0,-6.0163487E-2,4.774387E-2,-2.9999895E-2,4.4270836E-2,-2.7032339E-3,-8.627596E-2,8.850027E-2,-5.1532805E-2,-1.952811E-3,1.3164331E-1,5.8185626E-2,-2.3817465E-2],"split_indices":[1,6,0,5,0,2,1,1,0,0,6,0,3,1,1,3,3,0,0,0,0,0,0,0,0,0,0,0,0],"split_type":[0,0,0,0,0,0,0,0,0,0,0,0,0,0,0,0,0,0,0,0,0,0,0,0,0,0,0,0,0],"sum_hessian":[5.757557E1,5.054385E1,7.03172E0,1.1993522E1,3.8550327E1,7.799078E0,4.1944437E0,1.7093988E1,2.1456339E1,5.163459E0,2.6356194E0,1.3800787E0,2.814365E0,9.196791E0,7.897198E0,3.7556133E0,1.7700726E1,1.4304833E0,1.2051362E0,1.0822334E0,1.7321315E0,3.9551172E0,5.241673E0,3.0422888E0,4.8549094E0,1.8091815E0,1.9464319E0,4.084768E0,1.3615957E1],"tree_param":{"num_deleted":"0","num_feature":"10","num_nodes":"29","size_leaf_vector":"1"}},{"base_weights":[-1.0821642E-2,-1.4796135E-1,9.189477E-2,-4.8336148E-1,-3.6627535E-2,3.252702E-4,-5.7099974E-1,-3.3197436E-1,9.9398196E-2,-6.833727E-1,1.0525318E-3,-6.232805E-1,6.95711E-2,2.7403972E-1,-2.0089413E-1,-6.1705327E-3,-7.640612E-2,1.6615866E-2,-8.549257E-2,6.590508E-2,-7.013539E-2,1.06193975E-1,1.4272973E-2,4.431657E-2,-5.1138934E-2],"categories":[],"categories_nodes":[],"categories_segments":[],"categories_sizes":[],"default_left":[0,0,0,0,0,0,0,0,0,0,0,0,0,0,0,0,0,0,0,0,0,0,0,0,0],"id":29,"left_children":[1,3,-1,5,7,-1,9,11,13,15,-1,17,19,21,23,-1,-1,-1,-1,-1,-1,-1,-1,-1,-1],"loss_changes":[7.4146132E0,1.8720502E0,0E0,5.3622365E-1,1.6029165E0,0E0,7.014246E-1,1.51169E0,1.498534E0,4.002123E-1,0E0,1.4907942E0,3.2694814E0,1.6927179E0,2.366039E0,0E0,0E0,0E0,0E0,0E0,0E0,0E0,0E0,0E0,0E0],"parents":[2147483647,0,0,1,1,3,3,4,4,6,6,7,7,8,8,9,9,11,11,12,12,13,13,14,14],"right_children":[2,4,-1,6,8,-1,10,12,14,16,-1,18,20,22,24,-1,-1,-1,-1,-1,-1,-1,-1,-1,-1],"split_conditions":[2.0472703E0,3E0,9.189477E-2,5.502E2,1.28772E3,3.252702E-4,7.16781E3,1.0016042E0,1.4E1,3.89E2,1.0525318E-3,2.9497E2,1.0880086E0,1.56887E3,5.15E2,-6.1705327E-3,-7.640612E-2,1.6615866E-2,-8.549257E-2,6.590508E-2,-7.013539E-2,1.06193975E-1,1.4272973E-2,4.431657E-2,-5.1138934E-2],"split_indices":[1,6,0,0,0,0,0,1,3,5,0,0,1,0,5,0,0,0,0,0,0,0,0,0,0],"split_type":[0,0,0,0,0,0,0,0,0,0,0,0,0,0,0,0,0,0,0,0,0,0,0,0,0],"sum_hessian":[5.6083694E1,4.9607513E1,6.4761786E0,1.1530277E1,3.8077236E1,1.9066163E0,9.623661E0,1.1552741E1,2.6524496E1,7.9183865E0,1.7052748E0,6.3754134E0,5.177328E0,1.682625E1,9.698246E0,1.1124228E0,6.8059635E0,1.510473E0,4.86494E0,3.0161657E0,2.1611621E0,1.3912215E0,1.5435028E1,3.0156338E0,6.6826124E0],"tree_param":{"num_deleted":"0","num_feature":"10","num_nodes":"25","size_leaf_vector":"1"}},{"base_weights":[-9.766778E-3,-1.3722588E-1,9.040774E-2,-1.8912637E-1,4.7677866E-1,-8.756828E-2,-6.048268E-1,6.979067E-2,-8.364143E-3,-1.3687436E-1,8.09288E-2,-2.7171344E-1,-8.182403E-2,-5.8654454E-2,-7.1100495E-3,-5.3518392E-2,3.245176E-2],"categories":[],"categories_nodes":[],"categories_segments":[],"categories_sizes":[],"default_left":[0,0,0,0,0,0,0,0,0,0,0,0,0,0,0,0,0],"id":30,"left_children":[1,3,-1,5,7,9,11,-1,-1,13,-1,15,-1,-1,-1,-1,-1],"loss_changes":[6.628431E0,1.6795477E0,0E0,1.9187664E0,5.7529664E-1,1.8222505E0,4.17526E-1,0E0,0E0,1.0686523E0,0E0,9.609721E-1,0E0,0E0,0E0,0E0,0E0],"parents":[2147483647,0,0,1,1,3,3,4,4,5,5,6,6,9,9,11,11],"right_children":[2,4,-1,6,8,10,12,-1,-1,14,-1,16,-1,-1,-1,-1,-1],"split_conditions":[2.0472703E0,1E0,9.040774E-2,1.1577036E0,4E0,1.1482731E0,3E0,6.979067E-2,-8.364143E-3,2E0,8.09288E-2,5E0,-8.182403E-2,-5.8654454E-2,-7.1100495E-3,-5.3518392E-2,3.245176E-2],"split_indices":[1,9,0,1,3,1,2,0,0,6,0,6,0,0,0,0,0],"split_type":[0,0,0,0,0,0,0,0,0,0,0,0,0,0,0,0,0],"sum_hessian":[5.4842148E1,4.887509E1,5.967054E0,4.5703823E1,3.1712677E0,3.7703327E1,8.000496E0,2.0980864E0,1.0731814E0,3.654177E1,1.1615572E0,4.0117707E0,3.988725E0,3.652624E0,3.288915E1,2.8533037E0,1.1584673E0],"tree_param":{"num_deleted":"0","num_feature":"10","num_nodes":"17","size_leaf_vector":"1"}},{"base_weights":[-7.854776E-3,-1.2658158E-1,8.8920794E-2,-4.4517386E-1,-2.6562484E-2,-6.027563E-1,-1.000378E-1,4.5087594E-1,-1.02287084E-1,-8.341122E-2,-6.1054476E-2,2.3658104E-1,-5.1160913E-2,7.9977113E-1,-5.2348692E-2,-3.8764352E-1,7.921571E-2,4.884513E-2,-5.642152E-2,5.0191134E-2,-1.2364295E-2,1.2646794E-1,-9.748447E-3,2.9697556E-2,-5.3501733E-2,-2.9156959E-2,2.2151463E-2],"categories":[],"categories_nodes":[],"categories_segments":[],"categories_sizes":[],"default_left":[0,0,0,0,0,0,0,0,0,0,0,0,0,0,0,0,0,0,0,0,0,0,0,0,0,0,0],"id":31,"left_children":[1,3,-1,5,7,9,11,13,15,-1,17,19,-1,21,-1,23,25,-1,-1,-1,-1,-1,-1,-1,-1,-1,-1],"loss_changes":[5.9227576E0,1.5512404E0,0E0,5.7367563E-1,1.434268E0,9.2708516E-1,7.933693E-1,2.268353E0,1.7893174E0,0E0,1.2196473E0,3.8256243E-1,0E0,1.9595597E0,0E0,1.5078864E0,1.2034224E0,0E0,0E0,0E0,0E0,0E0,0E0,0E0,0E0,0E0,0E0],"parents":[2147483647,0,0,1,1,3,3,4,4,5,5,6,6,7,7,8,8,10,10,11,11,13,13,15,15,16,16],"right_children":[2,4,-1,6,8,10,12,14,16,-1,18,20,-1,22,-1,24,26,-1,-1,-1,-1,-1,-1,-1,-1,-1,-1],"split_conditions":[2.0472703E0,3E0,8.8920794E-2,9.27E2,5E0,5E0,4E0,1.5E1,1E1,-8.341122E-2,3E0,1.047E3,-5.1160913E-2,2.61058E3,-5.2348692E-2,7.523642E-1,2E0,4.884513E-2,-5.642152E-2,5.0191134E-2,-1.2364295E-2,1.2646794E-1,-9.748447E-3,2.9697556E-2,-5.3501733E-2,-2.9156959E-2,2.2151463E-2],"split_indices":[1,6,0,5,7,2,2,3,7,0,7,5,0,0,0,1,2,0,0,0,0,0,0,0,0,0,0],"split_type":[0,0,0,0,0,0,0,0,0,0,0,0,0,0,0,0,0,0,0,0,0,0,0,0,0,0,0],"sum_hessian":[5.3553116E1,4.8052265E1,5.5008535E0,1.0656636E1,3.739563E1,6.8037457E0,3.8528903E0,4.441037E0,3.295459E1,4.389312E0,2.4144335E0,2.353318E0,1.4995723E0,3.4020374E0,1.0389998E0,1.2370345E1,2.0584246E1,1.168041E0,1.2463926E0,1.1286538E0,1.2246643E0,1.9711823E0,1.430855E0,2.011391E0,1.0358954E1,5.417912E0,1.5166334E1],"tree_param":{"num_deleted":"0","num_feature":"10","num_nodes":"27","size_leaf_vector":"1"}},{"base_weights":[-7.449097E-3,-1.6780931E-1,6.219642E-1,-5.7854123E-2,-5.108194E-1,8.838772E-2,4.9666546E-2,-2.8702256E-1,3.7423834E-1,-6.6321775E-2,-8.28136E-2,-4.6663515E-2,6.0750034E-2,-4.9844986E-1,-5.0378922E-2,8.4972996E-1,-1.7034572E-1,-4.7412464E-1,4.9707748E-2,1.4000564E-2,-8.454981E-2,2.6517233E-2,-6.02704E-2,-9.894427E-3,1.660658E-1,5.987789E-2,-4.691022E-2,-1.490484E-3,-6.431262E-2],"categories":[],"categories_nodes":[],"categories_segments":[],"categories_sizes":[],"default_left":[0,0,0,0,0,0,0,0,0,0,0,0,0,0,0,0,0,0,0,0,0,0,0,0,0,0,0,0,0],"id":32,"left_children":[1,3,5,7,9,-1,11,13,15,17,-1,-1,-1,19,21,23,25,27,-1,-1,-1,-1,-1,-1,-1,-1,-1,-1,-1],"loss_changes":[5.5188346E0,1.6125714E0,1.6206102E0,3.4838872E0,1.417783E0,0E0,1.5927849E0,1.1179903E0,3.3171442E0,1.4846616E0,0E0,0E0,0E0,2.7670684E0,2.232622E0,5.324445E0,1.7845099E0,2.748779E-1,0E0,0E0,0E0,0E0,0E0,0E0,0E0,0E0,0E0,0E0,0E0],"parents":[2147483647,0,0,1,1,2,2,3,3,4,4,6,6,7,7,8,8,9,9,13,13,14,14,15,15,16,16,17,17],"right_children":[2,4,6,8,10,-1,12,14,16,18,-1,-1,-1,20,22,24,26,28,-1,-1,-1,-1,-1,-1,-1,-1,-1,-1,-1],"split_conditions":[8.68801E3,3.48725E3,4E0,2.28996E3,3E0,8.838772E-2,8.15E2,8.28E2,6.98E2,9.39E2,-8.28136E-2,-4.6663515E-2,6.0750034E-2,3.57E2,1.5E1,1.3E1,5E0,6.05E2,4.9707748E-2,1.4000564E-2,-8.454981E-2,2.6517233E-2,-6.02704E-2,-9.894427E-3,1.660658E-1,5.987789E-2,-4.691022E-2,-1.490484E-3,-6.431262E-2],"split_indices":[0,0,3,0,2,0,5,5,5,5,0,0,0,5,3,3,3,5,0,0,0,0,0,0,0,0,0,0,0],"split_type":[0,0,0,0,0,0,0,0,0,0,0,0,0,0,0,0,0,0,0,0,0,0,0,0,0,0,0,0,0],"sum_hessian":[5.2644215E1,4.2539505E1,1.0104711E1,3.3098217E1,9.441286E0,6.5586824E0,3.5460281E0,2.184699E1,1.1251227E1,4.4361405E0,5.0051455E0,1.926473E0,1.6195551E0,1.0953947E1,1.08930435E1,5.7075114E0,5.5437164E0,2.6653495E0,1.7707913E0,4.0675545E0,6.886392E0,7.263309E0,3.629735E0,3.0349839E0,2.6725273E0,1.2699904E0,4.273726E0,1.0097628E0,1.6555866E0],"tree_param":{"num_deleted":"0","num_feature":"10","num_nodes":"29","size_leaf_vector":"1"}},{"base_weights":[-6.891627E-3,-1.1145368E-1,8.63049E-2,-7.303329E-2,-6.1972193E-2,3.44372E-1,-1.4679569E-1,6.8658626E-1,-6.342416E-2,-4.6037236E-1,-2.742987E-3,1.09501936E-1,-1.8392762E-2,7.5055133E-3,-7.753143E-2,-8.665171E-3,6.764915E-2],"categories":[],"categories_nodes":[],"categories_segments":[],"categories_sizes":[],"default_left":[0,0,0,0,0,0,0,0,0,0,0,0,0,0,0,0,0],"id":33,"left_children":[1,3,-1,-1,5,7,9,11,-1,13,15,-1,-1,-1,-1,-1,-1],"loss_changes":[4.8752465E0,1.418122E0,0E0,0E0,1.6133726E0,3.1579256E0,1.7248561E0,2.513614E0,0E0,2.085537E0,1.6082753E0,0E0,0E0,0E0,0E0,0E0,0E0],"parents":[2147483647,0,0,1,1,4,4,5,5,6,6,7,7,9,9,10,10],"right_children":[2,4,-1,-1,6,8,10,12,-1,14,16,-1,-1,-1,-1,-1,-1],"split_conditions":[2.0472703E0,2E0,8.63049E-2,-7.303329E-2,5E0,1.6E1,1.28772E3,2.99028E3,-6.342416E-2,4.7316E2,8E0,1.09501936E-1,-1.8392762E-2,7.5055133E-3,-7.753143E-2,-8.665171E-3,6.764915E-2],"split_indices":[1,7,0,0,7,3,0,0,0,0,6,0,0,0,0,0,0],"split_type":[0,0,0,0,0,0,0,0,0,0,0,0,0,0,0,0,0],"sum_hessian":[5.153859E1,4.678694E1,4.751648E0,2.4451413E0,4.43418E1,7.129293E0,3.721251E1,5.5032535E0,1.6260394E0,1.1022551E1,2.6189957E1,3.5702443E0,1.933009E0,4.3643975E0,6.658153E0,2.4086834E1,2.103122E0],"tree_param":{"num_deleted":"0","num_feature":"10","num_nodes":"17","size_leaf_vector":"1"}},{"base_weights":[-6.3625854E-3,-1.4964809E-1,5.86581E-1,-4.596984E-2,-4.8499376E-1,8.5356586E-2,4.5813423E-2,-2.6074937E-1,3.3637723E-1,-5.536354E-2,-8.103595E-2,-4.4881903E-2,5.693666E-2,-5.060298E-1,-5.8667947E-2,7.367749E-1,-1.5979491E-1,-4.515966E-1,4.600396E-2,2.0333608E-3,-6.391782E-2,-3.2253582E-2,3.709611E-2,-9.518866E-3,1.376695E-1,5.2696493E-2,-4.4425488E-2,-1.2398544E-3,-6.2160093E-2],"categories":[],"categories_nodes":[],"categories_segments":[],"categories_sizes":[],"default_left":[0,0,0,0,0,0,0,0,0,0,0,0,0,0,0,0,0,0,0,0,0,0,0,0,0,0,0,0,0],"id":34,"left_children":[1,3,5,7,9,-1,11,13,15,17,-1,-1,-1,19,21,23,25,27,-1,-1,-1,-1,-1,-1,-1,-1,-1,-1,-1],"loss_changes":[4.4826164E0,1.45387E0,1.4437368E0,2.8416665E0,1.3420873E0,0E0,1.4083188E0,1.0625904E0,2.6008708E0,1.3001596E0,0E0,0E0,0E0,7.014489E-1,1.6175889E0,3.9085398E0,1.4851061E0,2.5577617E-1,0E0,0E0,0E0,0E0,0E0,0E0,0E0,0E0,0E0,0E0,0E0],"parents":[2147483647,0,0,1,1,2,2,3,3,4,4,6,6,7,7,8,8,9,9,13,13,14,14,15,15,16,16,17,17],"right_children":[2,4,6,8,10,-1,12,14,16,18,-1,-1,-1,20,22,24,26,28,-1,-1,-1,-1,-1,-1,-1,-1,-1,-1,-1],"split_conditions":[8.68801E3,3.48725E3,4E0,2.28996E3,3E0,8.5356586E-2,8.15E2,4E0,6.98E2,9.39E2,-8.103595E-2,-4.4881903E-2,5.693666E-2,7E0,1.008E3,1.3E1,5E0,6.09E2,4.600396E-2,2.0333608E-3,-6.391782E-2,-3.2253582E-2,3.709611E-2,-9.518866E-3,1.376695E-1,5.2696493E-2,-4.4425488E-2,-1.2398544E-3,-6.2160093E-2],"split_indices":[0,0,3,0,2,0,5,6,5,5,0,0,0,3,5,3,3,5,0,0,0,0,0,0,0,0,0,0,0],"split_type":[0,0,0,0,0,0,0,0,0,0,0,0,0,0,0,0,0,0,0,0,0,0,0,0,0,0,0,0,0],"sum_hessian":[5.072816E1,4.145752E1,9.270639E0,3.253562E1,8.9219E0,5.8191876E0,3.4514515E0,2.1036573E1,1.1499048E1,4.3491755E0,4.572725E0,1.8481429E0,1.6033087E0,8.823176E0,1.2213396E1,6.0953474E0,5.403701E0,2.5288434E0,1.8203319E0,1.9523634E0,6.870813E0,7.7207594E0,4.492637E0,3.020121E0,3.0752265E0,1.3329954E0,4.0707054E0,1.005113E0,1.5237304E0],"tree_param":{"num_deleted":"0","num_feature":"10","num_nodes":"29","size_leaf_vector":"1"}},{"base_weights":[-5.3192377E-3,-9.757746E-2,8.3621114E-2,-7.0821255E-2,-5.126686E-2,3.215799E-1,-1.317007E-1,6.1956376E-1,-6.1038684E-2,-3.083911E-1,7.91602E-2,9.8936915E-2,-1.4582353E-2,2.3700954E-2,-4.1316137E-2,-5.2794795E-2,2.2613803E-2],"categories":[],"categories_nodes":[],"categories_segments":[],"categories_sizes":[],"default_left":[0,0,0,0,0,0,0,0,0,0,0,0,0,0,0,0,0],"id":35,"left_children":[1,3,-1,-1,5,7,9,11,-1,13,15,-1,-1,-1,-1,-1,-1],"loss_changes":[4.0185795E0,1.2813423E0,0E0,0E0,1.3735332E0,2.6462853E0,1.4111617E0,2.0363538E0,0E0,1.2667975E0,1.70462E0,0E0,0E0,0E0,0E0,0E0,0E0],"parents":[2147483647,0,0,1,1,4,4,5,5,6,6,7,7,9,9,10,10],"right_children":[2,4,-1,-1,6,8,10,12,-1,14,16,-1,-1,-1,-1,-1,-1],"split_conditions":[2.0472703E0,2E0,8.3621114E-2,-7.0821255E-2,5E0,1.6E1,5E0,1.0449736E0,-6.1038684E-2,7.567333E-1,7.297361E-1,9.8936915E-2,-1.4582353E-2,2.3700954E-2,-4.1316137E-2,-5.2794795E-2,2.2613803E-2],"split_indices":[1,7,0,0,7,3,6,1,0,1,1,0,0,0,0,0,0],"split_type":[0,0,0,0,0,0,0,0,0,0,0,0,0,0,0,0,0],"sum_hessian":[4.9709435E1,4.5594852E1,4.114583E0,2.20661E0,4.338824E1,7.167164E0,3.6221077E1,5.68475E0,1.4824141E0,1.945569E1,1.6765387E1,3.6355534E0,2.0491965E0,2.9317498E0,1.6523941E1,2.76251E0,1.4002877E1],"tree_param":{"num_deleted":"0","num_feature":"10","num_nodes":"17","size_leaf_vector":"1"}},{"base_weights":[-5.5954247E-3,-1.3435876E-1,5.5359E-1,-3.7441075E-2,-4.593242E-1,8.185041E-2,4.9915675E-2,-2.4326083E-1,3.1556574E-1,-4.1708883E-2,-7.931917E-2,-4.2469393E-2,5.3632226E-2,-4.8164868E-1,-5.5214427E-2,6.5555453E-1,-1.3965319E-1,-4.28066E-1,4.3236893E-2,8.9647446E-4,-6.1299797E-2,-3.0278971E-2,3.2687295E-2,-7.867447E-3,1.1645911E-1,4.8286553E-2,-4.147529E-2,-5.977061E-2,-1.1546751E-3],"categories":[],"categories_nodes":[],"categories_segments":[],"categories_sizes":[],"default_left":[0,0,0,0,0,0,0,0,0,0,0,0,0,0,0,0,0,0,0,0,0,0,0,0,0,0,0,0,0],"id":36,"left_children":[1,3,5,7,9,-1,11,13,15,17,-1,-1,-1,19,21,23,25,27,-1,-1,-1,-1,-1,-1,-1,-1,-1,-1,-1],"loss_changes":[3.6803257E0,1.2902145E0,1.2359293E0,2.4790735E0,1.2841823E0,0E0,1.235014E0,9.350178E-1,2.0436716E0,1.1472168E0,0E0,0E0,0E0,6.067312E-1,1.3401815E0,2.8558822E0,1.2649734E0,2.3310375E-1,0E0,0E0,0E0,0E0,0E0,0E0,0E0,0E0,0E0,0E0,0E0],"parents":[2147483647,0,0,1,1,2,2,3,3,4,4,6,6,7,7,8,8,9,9,13,13,14,14,15,15,16,16,17,17],"right_children":[2,4,6,8,10,-1,12,14,16,18,-1,-1,-1,20,22,24,26,28,-1,-1,-1,-1,-1,-1,-1,-1,-1,-1,-1],"split_conditions":[8.68801E3,3.48725E3,4E0,2.28996E3,3E0,8.185041E-2,8.15E2,4E0,6.98E2,9.39E2,-7.931917E-2,-4.2469393E-2,5.3632226E-2,7E0,1.008E3,1.3E1,5E0,5.15011E3,4.3236893E-2,8.9647446E-4,-6.1299797E-2,-3.0278971E-2,3.2687295E-2,-7.867447E-3,1.1645911E-1,4.8286553E-2,-4.147529E-2,-5.977061E-2,-1.1546751E-3],"split_indices":[0,0,3,0,2,0,5,6,5,5,0,0,0,3,5,3,3,0,0,0,0,0,0,0,0,0,0,0,0],"split_type":[0,0,0,0,0,0,0,0,0,0,0,0,0,0,0,0,0,0,0,0,0,0,0,0,0,0,0,0,0],"sum_hessian":[4.908079E1,4.051187E1,8.568923E0,3.2064247E1,8.447624E0,5.2057986E0,3.363124E0,2.0451145E1,1.1613101E1,4.2528763E0,4.1947474E0,1.76642E0,1.596704E0,8.329917E0,1.2121228E1,6.396024E0,5.217077E0,2.396702E0,1.8561743E0,1.9559261E0,6.373991E0,7.4812536E0,4.639975E0,2.9649112E0,3.431113E0,1.3674521E0,3.8496244E0,1.3939652E0,1.0027368E0],"tree_param":{"num_deleted":"0","num_feature":"10","num_nodes":"29","size_leaf_vector":"1"}},{"base_weights":[-4.9148095E-3,-8.658693E-2,8.093277E-2,-6.865118E-2,-4.332918E-2,3.012392E-1,-1.19332306E-1,5.6469405E-1,-5.8751024E-2,-4.089465E-1,6.3234433E-3,8.8838495E-2,-2.011945E-2,1.1592941E-2,-7.445177E-2,7.638367E-2,-6.122246E-3],"categories":[],"categories_nodes":[],"categories_segments":[],"categories_sizes":[],"default_left":[0,0,0,0,0,0,0,0,0,0,0,0,0,0,0,0,0],"id":37,"left_children":[1,3,-1,-1,5,7,9,11,-1,13,15,-1,-1,-1,-1,-1,-1],"loss_changes":[3.3416874E0,1.1540283E0,0E0,0E0,1.1781371E0,2.2436757E0,1.329028E0,1.8665988E0,0E0,2.0315752E0,1.3978143E0,0E0,0E0,0E0,0E0,0E0,0E0],"parents":[2147483647,0,0,1,1,4,4,5,5,6,6,7,7,9,9,10,10],"right_children":[2,4,-1,-1,6,8,10,12,-1,14,16,-1,-1,-1,-1,-1,-1],"split_conditions":[2.0472703E0,2E0,8.093277E-2,-6.865118E-2,5E0,1.6E1,1.28772E3,2.99028E3,-5.8751024E-2,4.7316E2,1.44275E3,8.8838495E-2,-2.011945E-2,1.1592941E-2,-7.445177E-2,7.638367E-2,-6.122246E-3],"split_indices":[1,7,0,0,7,3,0,0,0,0,0,0,0,0,0,0,0],"split_type":[0,0,0,0,0,0,0,0,0,0,0,0,0,0,0,0,0],"sum_hessian":[4.819647E1,4.4615044E1,3.5814264E0,2.0005088E0,4.2614532E1,7.165492E0,3.544904E1,5.80833E0,1.3571625E0,1.0044274E1,2.5404766E1,3.9703732E0,1.8379568E0,4.1724944E0,5.8717794E0,1.2359079E0,2.416886E1],"tree_param":{"num_deleted":"0","num_feature":"10","num_nodes":"17","size_leaf_vector":"1"}},{"base_weights":[-4.4204323E-3,-1.2045927E-1,5.2188444E-1,-2.988405E-2,-4.3442014E-1,7.8781664E-2,4.785015E-2,-2.2329074E-1,2.8786463E-1,-3.3551946E-2,-7.744107E-2,-3.424891E-1,6.2285747E-2,1.9251488E-1,-3.281489E-1,5.804249E-1,-1.2884681E-1,-4.0698713E-1,4.0046927E-2,6.4153085E-3,-5.7744145E-2,-3.1800654E-2,5.976748E-2,-8.1554264E-2,-1.5949252E-3,-7.309021E-3,1.00116216E-1,-6.557851E-2,1.9067084E-2,-1.4147958E-3,-5.7472706E-2],"categories":[],"categories_nodes":[],"categories_segments":[],"categories_sizes":[],"default_left":[0,0,0,0,0,0,0,0,0,0,0,0,0,0,0,0,0,0,0,0,0,0,0,0,0,0,0,0,0,0,0],"id":38,"left_children":[1,3,5,7,9,-1,11,13,15,17,-1,19,-1,21,23,25,27,29,-1,-1,-1,-1,-1,-1,-1,-1,-1,-1,-1,-1,-1],"loss_changes":[3.0324614E0,1.1430737E0,1.0932631E0,2.0692253E0,1.204499E0,0E0,1.1759548E0,9.7197044E-1,1.632975E0,1.0039335E0,0E0,3.4276706E-1,0E0,1.1887068E0,2.576163E0,2.1878326E0,1.1504391E0,2.0832503E-1,0E0,0E0,0E0,0E0,0E0,0E0,0E0,0E0,0E0,0E0,0E0,0E0,0E0],"parents":[2147483647,0,0,1,1,2,2,3,3,4,4,6,6,7,7,8,8,9,9,11,11,13,13,14,14,15,15,16,16,17,17],"right_children":[2,4,6,8,10,-1,12,14,16,18,-1,20,-1,22,24,26,28,30,-1,-1,-1,-1,-1,-1,-1,-1,-1,-1,-1,-1,-1],"split_conditions":[8.68801E3,3.48725E3,4E0,2.28996E3,3E0,7.8781664E-2,1.3E1,3.57E2,6.98E2,9.39E2,-7.744107E-2,1.01128E4,6.2285747E-2,1.0016042E0,8.28E2,1.3E1,4E0,6.17E2,4.0046927E-2,6.4153085E-3,-5.7744145E-2,-3.1800654E-2,5.976748E-2,-8.1554264E-2,-1.5949252E-3,-7.309021E-3,1.00116216E-1,-6.557851E-2,1.9067084E-2,-1.4147958E-3,-5.7472706E-2],"split_indices":[0,0,3,0,2,0,7,5,5,5,0,0,0,1,5,3,6,5,0,0,0,0,0,0,0,0,0,0,0,0,0],"split_type":[0,0,0,0,0,0,0,0,0,0,0,0,0,0,0,0,0,0,0,0,0,0,0,0,0,0,0,0,0,0,0],"sum_hessian":[4.7624653E1,3.965312E1,7.971533E0,3.16248E1,8.02832E0,4.682641E0,3.288892E0,1.9843666E1,1.1781134E1,4.1885114E0,3.839809E0,2.1998887E0,1.0890032E0,3.8280244E0,1.601564E1,6.6908345E0,5.090299E0,2.284875E0,1.9036363E0,1.0718114E0,1.1280774E0,1.7889578E0,2.0390666E0,5.6237764E0,1.0391865E1,2.944122E0,3.7467124E0,1.5242056E0,3.5660934E0,1.0081587E0,1.2767164E0],"tree_param":{"num_deleted":"0","num_feature":"10","num_nodes":"31","size_leaf_vector":"1"}},{"base_weights":[-5.2721766E-3,-7.7988036E-2,7.830744E-2,-6.6675454E-2,-3.7353393E-2,2.7692392E-1,-1.08679324E-1,5.118524E-1,-5.6886803E-2,-2.5979596E-1,1.1972246E-1,8.144287E-2,-1.5428282E-2,4.7170296E-2,-3.413194E-2,-6.425395E-2,2.6001189E-2],"categories":[],"categories_nodes":[],"categories_segments":[],"categories_sizes":[],"default_left":[0,0,0,0,0,0,0,0,0,0,0,0,0,0,0,0,0],"id":39,"left_children":[1,3,-1,-1,5,7,9,11,-1,13,15,-1,-1,-1,-1,-1,-1],"loss_changes":[2.8097148E0,1.0471059E0,0E0,0E0,9.934271E-1,1.9266839E0,1.2648156E0,1.5301243E0,0E0,1.4626303E0,1.7622566E0,0E0,0E0,0E0,0E0,0E0,0E0],"parents":[2147483647,0,0,1,1,4,4,5,5,6,6,7,7,9,9,10,10],"right_children":[2,4,-1,-1,6,8,10,12,-1,14,16,-1,-1,-1,-1,-1,-1],"split_conditions":[2.0472703E0,2E0,7.830744E-2,-6.6675454E-2,5E0,1.6E1,1.2E1,1.0449736E0,-5.6886803E-2,6.242245E-1,7.3372793E-1,8.144287E-2,-1.5428282E-2,4.7170296E-2,-3.413194E-2,-6.425395E-2,2.6001189E-2],"split_indices":[1,7,0,0,7,3,7,1,0,1,1,0,0,0,0,0,0],"split_type":[0,0,0,0,0,0,0,0,0,0,0,0,0,0,0,0,0],"sum_hessian":[4.6948193E1,4.3808445E1,3.139749E0,1.8335216E0,4.1974922E1,7.2310133E0,3.4743908E1,5.968123E0,1.2628902E0,2.0826859E1,1.3917051E1,3.9509015E0,2.0172217E0,1.6084391E0,1.921842E1,1.6067395E0,1.2310311E1],"tree_param":{"num_deleted":"0","num_feature":"10","num_nodes":"17","size_leaf_vector":"1"}},{"base_weights":[-5.3752162E-3,-9.288975E-2,5.954655E-1,-2.1292659E-2,-5.8730394E-1,2.049225E-1,7.6711684E-2,-1.9153874E-1,1.7304923E-1,9.5163435E-3,-7.763954E-2,4.794023E-2,-2.016791E-2,-4.2203686E-1,7.467462E-2,9.1361545E-2,2.6851399E-2,-1.2617016E-2,-6.87233E-2,2.3732295E-2,-5.931705E-2,-6.0005207E-2,1.2385397E-2],"categories":[],"categories_nodes":[],"categories_segments":[],"categories_sizes":[],"default_left":[0,0,0,0,0,0,0,0,0,0,0,0,0,0,0,0,0,0,0,0,0,0,0],"id":40,"left_children":[1,3,5,7,9,11,-1,13,15,-1,-1,-1,-1,17,19,-1,21,-1,-1,-1,-1,-1,-1],"loss_changes":[2.548513E0,1.4831604E0,2.5595856E-1,1.2885941E0,7.587489E-1,4.5897964E-1,0E0,1.3017688E0,1.9507295E0,0E0,0E0,0E0,0E0,7.95614E-1,1.2765406E0,0E0,1.0635016E0,0E0,0E0,0E0,0E0,0E0,0E0],"parents":[2147483647,0,0,1,1,2,2,3,3,4,4,5,5,7,7,8,8,13,13,14,14,16,16],"right_children":[2,4,6,8,10,12,-1,14,16,-1,-1,-1,-1,18,20,-1,22,-1,-1,-1,-1,-1,-1],"split_conditions":[1.4785079E0,1.2063513E0,2.0472703E0,9.939519E-1,5E0,9E0,7.6711684E-2,8.67E2,1.0074385E0,9.5163435E-3,-7.763954E-2,4.794023E-2,-2.016791E-2,5.06E2,6E0,9.1361545E-2,4.447E2,-1.2617016E-2,-6.87233E-2,2.3732295E-2,-5.931705E-2,-6.0005207E-2,1.2385397E-2],"split_indices":[1,1,1,1,3,7,0,5,1,0,0,0,0,5,2,0,0,0,0,0,0,0,0],"split_type":[0,0,0,0,0,0,0,0,0,0,0,0,0,0,0,0,0,0,0,0,0,0,0],"sum_hessian":[4.6415203E1,4.1252094E1,5.1631103E0,3.6945072E1,4.307022E0,2.2462497E0,2.9168606E0,1.9701084E1,1.7243988E1,1.042212E0,3.26481E0,1.234108E0,1.0121417E0,1.0245119E1,9.455965E0,1.9775451E0,1.5266443E1,5.540078E0,4.7050405E0,8.122451E0,1.3335142E0,1.3507758E0,1.3915668E1],"tree_param":{"num_deleted":"0","num_feature":"10","num_nodes":"23","size_leaf_vector":"1"}},{"base_weights":[-6.2134443E-3,-1.0637747E-1,4.7969913E-1,-1.5801938E-1,3.9809257E-1,7.463227E-2,4.0211193E-2,-3.4390786E-1,-2.0418895E-2,-1.2312241E-2,6.5740414E-2,-4.063105E-2,5.351457E-2,1.6373342E-2,-6.694534E-1,3.26476E-1,-2.8443477E-1,-2.1495393E-2,4.5463037E-2,-4.074558E-3,-7.566705E-2,-1.6358187E-2,6.1922736E-2,-4.6333643E-3,-7.871756E-2],"categories":[],"categories_nodes":[],"categories_segments":[],"categories_sizes":[],"default_left":[0,0,0,0,0,0,0,0,0,0,0,0,0,0,0,0,0,0,0,0,0,0,0,0,0],"id":41,"left_children":[1,3,5,7,9,-1,11,13,15,-1,-1,-1,-1,17,19,21,23,-1,-1,-1,-1,-1,-1,-1,-1],"loss_changes":[2.3353684E0,1.0979824E0,9.3118405E-1,9.331803E-1,6.180164E-1,0E0,1.135532E0,1.8374041E0,2.1247332E0,0E0,0E0,0E0,0E0,9.4607127E-1,4.190483E-1,1.5436107E0,1.5354728E0,0E0,0E0,0E0,0E0,0E0,0E0,0E0,0E0],"parents":[2147483647,0,0,1,1,2,2,3,3,4,4,6,6,7,7,8,8,13,13,14,14,15,15,16,16],"right_children":[2,4,6,8,10,-1,12,14,16,-1,-1,-1,-1,18,20,22,24,-1,-1,-1,-1,-1,-1,-1,-1],"split_conditions":[8.68801E3,8E0,4E0,1.1E1,1.41756E3,7.463227E-2,4E0,7E0,1.5E1,-1.2312241E-2,6.5740414E-2,-4.063105E-2,5.351457E-2,1.1E1,7.188413E-1,9.599791E-1,1.0952905E0,-2.1495393E-2,4.5463037E-2,-4.074558E-3,-7.566705E-2,-1.6358187E-2,6.1922736E-2,-4.6333643E-3,-7.871756E-2],"split_indices":[0,6,3,3,0,0,2,3,3,0,0,0,0,7,1,1,1,0,0,0,0,0,0,0,0],"split_type":[0,0,0,0,0,0,0,0,0,0,0,0,0,0,0,0,0,0,0,0,0,0,0,0,0],"sum_hessian":[4.5934338E1,3.873147E1,7.2028694E0,3.575776E1,2.9737113E0,4.0485663E0,3.1543028E0,1.4572298E1,2.118546E1,1.1624292E0,1.811282E0,1.752389E0,1.4019139E0,7.3679233E0,7.2043743E0,9.053429E0,1.2132031E1,5.1559563E0,2.2119672E0,1.0564061E0,6.1479683E0,3.5507667E0,5.502662E0,8.974035E0,3.1579955E0],"tree_param":{"num_deleted":"0","num_feature":"10","num_nodes":"25","size_leaf_vector":"1"}},{"base_weights":[-5.3562606E-3,-6.599408E-2,7.3987655E-2,-6.47886E-2,-2.7287435E-2,2.6134866E-1,-9.442622E-2,4.7009832E-1,-5.449773E-2,-3.580567E-1,1.404857E-2,7.371088E-2,-2.1447476E-2,1.4948524E-2,-7.105089E-2,7.308863E-2,-5.3345845E-3],"categories":[],"categories_nodes":[],"categories_segments":[],"categories_sizes":[],"default_left":[0,0,0,0,0,0,0,0,0,0,0,0,0,0,0,0,0],"id":42,"left_children":[1,3,-1,-1,5,7,9,11,-1,13,15,-1,-1,-1,-1,-1,-1],"loss_changes":[2.1441176E0,9.687457E-1,0E0,0E0,8.4068686E-1,1.6384021E0,1.0029833E0,1.4485607E0,0E0,1.9327524E0,1.2799054E0,0E0,0E0,0E0,0E0,0E0,0E0],"parents":[2147483647,0,0,1,1,4,4,5,5,6,6,7,7,9,9,10,10],"right_children":[2,4,-1,-1,6,8,10,12,-1,14,16,-1,-1,-1,-1,-1,-1],"split_conditions":[2.0472703E0,2E0,7.3987655E-2,-6.47886E-2,5E0,1.6E1,1.28772E3,2.99028E3,-5.449773E-2,4.7316E2,1.44275E3,7.371088E-2,-2.1447476E-2,1.4948524E-2,-7.105089E-2,7.308863E-2,-5.3345845E-3],"split_indices":[1,7,0,0,7,3,0,0,0,0,0,0,0,0,0,0,0],"split_type":[0,0,0,0,0,0,0,0,0,0,0,0,0,0,0,0,0],"sum_hessian":[4.536696E1,4.279618E1,2.570778E0,1.6875916E0,4.110859E1,7.211781E0,3.3896805E1,6.059917E0,1.151864E0,9.210746E0,2.4686062E1,4.3043203E0,1.7555966E0,4.010858E0,5.1998878E0,1.2754015E0,2.341066E1],"tree_param":{"num_deleted":"0","num_feature":"10","num_nodes":"17","size_leaf_vector":"1"}},{"base_weights":[-4.958903E-3,-7.9979084E-2,5.5076796E-1,-1.4706572E-2,-5.614512E-1,1.9479093E-1,7.2376065E-2,-3.1909963E-1,8.927637E-2,8.026901E-3,-7.519563E-2,4.1108694E-2,-1.0605245E-2,6.5631084E-2,-6.2023276E-1,-1.7351283E-1,2.948493E-1,7.362166E-2,-2.8223509E-2,1.7721696E-2,-8.39121E-2,-5.4945886E-2,1.0481584E-2,5.0882615E-2,-3.8639214E-2],"categories":[],"categories_nodes":[],"categories_segments":[],"categories_sizes":[],"default_left":[0,0,0,0,0,0,0,0,0,0,0,0,0,0,0,0,0,0,0,0,0,0,0,0,0],"id":43,"left_children":[1,3,5,7,9,11,-1,13,15,-1,-1,-1,-1,17,19,21,23,-1,-1,-1,-1,-1,-1,-1,-1],"loss_changes":[1.960524E0,1.292017E0,2.0352113E-1,1.2142236E0,6.609236E-1,2.5168014E-1,0E0,1.1711512E0,1.6018505E0,0E0,0E0,0E0,0E0,1.4180952E0,1.1207945E0,1.4417791E0,2.5983229E0,0E0,0E0,0E0,0E0,0E0,0E0,0E0,0E0],"parents":[2147483647,0,0,1,1,2,2,3,3,4,4,5,5,7,7,8,8,13,13,14,14,15,15,16,16],"right_children":[2,4,6,8,10,12,-1,14,16,-1,-1,-1,-1,18,20,22,24,-1,-1,-1,-1,-1,-1,-1,-1],"split_conditions":[1.4785079E0,1.2063513E0,2.0472703E0,2E0,5E0,1.6008534E0,7.2376065E-2,4E0,9.4664E-1,8.026901E-3,-7.519563E-2,4.1108694E-2,-1.0605245E-2,7.795308E-1,3.89E2,4E0,3.38316E3,7.362166E-2,-2.8223509E-2,1.7721696E-2,-8.39121E-2,-5.4945886E-2,1.0481584E-2,5.0882615E-2,-3.8639214E-2],"split_indices":[1,1,1,2,3,1,0,6,1,0,0,0,0,1,5,6,0,0,0,0,0,0,0,0,0],"split_type":[0,0,0,0,0,0,0,0,0,0,0,0,0,0,0,0,0,0,0,0,0,0,0,0,0],"sum_hessian":[4.496883E1,4.0374557E1,4.5942698E0,3.6462E1,3.9125583E0,2.1977792E0,2.3964903E0,8.757394E0,2.7704607E1,1.028085E0,2.8844733E0,1.0653682E0,1.132411E0,4.1883583E0,4.5690355E0,1.2228523E1,1.5476084E1,1.0492767E0,3.1390815E0,1.0250322E0,3.5440035E0,4.7876196E0,7.4409037E0,1.1969556E1,3.5065281E0],"tree_param":{"num_deleted":"0","num_feature":"10","num_nodes":"25","size_leaf_vector":"1"}},{"base_weights":[-5.6917765E-3,-9.546995E-2,4.5634243E-1,-1.4430597E-1,3.617976E-1,7.305298E-2,1.9198192E-2,-3.2523042E-1,-1.39262E-2,-1.0472873E-2,5.7705563E-2,5.8449287E-2,-3.9614238E-2,1.4118394E-2,-6.4667666E-1,2.8859854E-1,-2.5813565E-1,-2.100022E-2,4.2436827E-2,-3.0132288E-3,-7.374527E-2,-6.822484E-3,6.556665E-2,-3.5025743E-3,-7.649037E-2],"categories":[],"categories_nodes":[],"categories_segments":[],"categories_sizes":[],"default_left":[0,0,0,0,0,0,0,0,0,0,0,0,0,0,0,0,0,0,0,0,0,0,0,0,0],"id":44,"left_children":[1,3,5,7,9,-1,11,13,15,-1,-1,-1,-1,17,19,21,23,-1,-1,-1,-1,-1,-1,-1,-1],"loss_changes":[1.9347951E0,9.2317325E-1,8.958123E-1,8.435763E-1,4.670108E-1,0E0,1.159652E0,1.6468142E0,1.695436E0,0E0,0E0,0E0,0E0,8.506012E-1,4.104848E-1,1.3901713E0,1.4055287E0,0E0,0E0,0E0,0E0,0E0,0E0,0E0,0E0],"parents":[2147483647,0,0,1,1,2,2,3,3,4,4,6,6,7,7,8,8,13,13,14,14,15,15,16,16],"right_children":[2,4,6,8,10,-1,12,14,16,-1,-1,-1,-1,18,20,22,24,-1,-1,-1,-1,-1,-1,-1,-1],"split_conditions":[8.68801E3,8E0,1.01128E4,1.1E1,1.41756E3,7.305298E-2,2E0,7E0,1.5E1,-1.0472873E-2,5.7705563E-2,5.8449287E-2,-3.9614238E-2,1.1E1,7.188413E-1,9.25E2,1.0952905E0,-2.100022E-2,4.2436827E-2,-3.0132288E-3,-7.374527E-2,-6.822484E-3,6.556665E-2,-3.5025743E-3,-7.649037E-2],"split_indices":[0,6,0,3,0,0,3,3,3,0,0,0,0,7,1,5,1,0,0,0,0,0,0,0,0],"split_type":[0,0,0,0,0,0,0,0,0,0,0,0,0,0,0,0,0,0,0,0,0,0,0,0,0],"sum_hessian":[4.459309E1,3.8002224E1,6.590867E0,3.4953606E1,3.048617E0,3.637929E0,2.9529383E0,1.4013278E1,2.0940329E1,1.1246498E0,1.9239671E0,1.0782018E0,1.8747364E0,7.2818995E0,6.7313786E0,9.272216E0,1.1668114E1,5.0248966E0,2.2570028E0,1.0348301E0,5.6965485E0,5.1145473E0,4.1576686E0,8.8436985E0,2.8244147E0],"tree_param":{"num_deleted":"0","num_feature":"10","num_nodes":"25","size_leaf_vector":"1"}},{"base_weights":[-4.434602E-3,-8.8292055E-2,4.37323E-1,-1.2613597E-2,-3.7336525E-1,6.938831E-2,2.2757994E-2,-1.9245066E-1,2.6615235E-1,2.5210101E-2,-7.4266545E-2,5.6884535E-2,-3.7832983E-2,-6.614341E-2,-5.741202E-1,5.349371E-1,-1.296129E-1,-3.4075204E-2,3.93989E-2,-2.3346892E-2,5.3154767E-2,-6.8835996E-2,-8.700136E-3,-3.1354632E-2,7.9868056E-2,-6.298273E-2,1.5393994E-2],"categories":[],"categories_nodes":[],"categories_segments":[],"categories_sizes":[],"default_left":[0,0,0,0,0,0,0,0,0,0,0,0,0,0,0,0,0,0,0,0,0,0,0,0,0,0,0],"id":45,"left_children":[1,3,5,7,9,-1,11,13,15,17,-1,-1,-1,19,21,23,25,-1,-1,-1,-1,-1,-1,-1,-1,-1,-1],"loss_changes":[1.7064523E0,8.295852E-1,7.660588E-1,1.6351031E0,1.207687E0,0E0,1.0571688E0,9.158147E-1,1.4318929E0,7.8906876E-1,0E0,0E0,0E0,1.7238159E0,2.066276E-1,2.0011256E0,9.459472E-1,0E0,0E0,0E0,0E0,0E0,0E0,0E0,0E0,0E0,0E0],"parents":[2147483647,0,0,1,1,2,2,3,3,4,4,6,6,7,7,8,8,9,9,13,13,14,14,15,15,16,16],"right_children":[2,4,6,8,10,-1,12,14,16,18,-1,-1,-1,20,22,24,26,-1,-1,-1,-1,-1,-1,-1,-1,-1,-1],"split_conditions":[8.68801E3,3.48725E3,1.01128E4,2.28996E3,3E0,6.938831E-2,2E0,1.56887E3,6.98E2,9.39E2,-7.4266545E-2,5.6884535E-2,-3.7832983E-2,1.28772E3,1.3E1,3.69E2,4E0,-3.4075204E-2,3.93989E-2,-2.3346892E-2,5.3154767E-2,-6.8835996E-2,-8.700136E-3,-3.1354632E-2,7.9868056E-2,-6.298273E-2,1.5393994E-2],"split_indices":[0,0,0,0,2,0,3,0,5,5,0,0,0,0,7,5,6,0,0,0,0,0,0,0,0,0,0],"split_type":[0,0,0,0,0,0,0,0,0,0,0,0,0,0,0,0,0,0,0,0,0,0,0,0,0,0,0],"sum_hessian":[4.4022404E1,3.7671482E1,6.3509235E0,3.0593945E1,7.077536E0,3.5068762E0,2.8440473E0,1.8785017E1,1.1808928E1,3.8519595E0,3.2255764E0,1.0272179E0,1.8168294E0,1.49957285E1,3.7892888E0,6.8232512E0,4.9856763E0,1.9715085E0,1.880451E0,1.2191938E1,2.8037899E0,2.7347958E0,1.0544928E0,1.573227E0,5.2500243E0,1.3619196E0,3.6237564E0],"tree_param":{"num_deleted":"0","num_feature":"10","num_nodes":"27","size_leaf_vector":"1"}},{"base_weights":[-5.4038796E-3,-7.049659E-2,5.166859E-1,-1.223456E-2,-5.3410494E-1,1.8012156E-1,6.849628E-2,-3.0170938E-1,8.3146684E-2,3.180061E-3,-7.175019E-2,3.8946968E-2,-1.1357012E-2,-4.453736E-1,4.2122666E-2,1.6491003E-1,-5.1014847E-1,2.2915993E-2,-6.109053E-2,-7.7481987E-3,3.456892E-2,-6.645551E-2,-5.3179967E-3],"categories":[],"categories_nodes":[],"categories_segments":[],"categories_sizes":[],"default_left":[0,0,0,0,0,0,0,0,0,0,0,0,0,0,0,0,0,0,0,0,0,0,0],"id":46,"left_children":[1,3,5,7,9,11,-1,13,15,-1,-1,-1,-1,17,-1,19,21,-1,-1,-1,-1,-1,-1],"loss_changes":[1.551569E0,1.0879766E0,1.6333926E-1,1.0472509E0,4.8989105E-1,2.3140298E-1,0E0,1.1629698E0,1.4729515E0,0E0,0E0,0E0,0E0,1.0690205E0,0E0,1.1624883E0,2.2656947E-1,0E0,0E0,0E0,0E0,0E0,0E0],"parents":[2147483647,0,0,1,1,2,2,3,3,4,4,5,5,7,7,8,8,13,13,15,15,16,16],"right_children":[2,4,6,8,10,12,-1,14,16,-1,-1,-1,-1,18,-1,20,22,-1,-1,-1,-1,-1,-1],"split_conditions":[1.4785079E0,1.2063513E0,2.0472703E0,2E0,6E0,1.6008534E0,6.849628E-2,2E1,2.1E1,3.180061E-3,-7.175019E-2,3.8946968E-2,-1.1357012E-2,3E0,4.2122666E-2,9.4664E-1,2.3E1,2.2915993E-2,-6.109053E-2,-7.7481987E-3,3.456892E-2,-6.645551E-2,-5.3179967E-3],"split_indices":[1,1,1,2,3,1,0,3,3,0,0,0,0,3,0,1,3,0,0,0,0,0,0],"split_type":[0,0,0,0,0,0,0,0,0,0,0,0,0,0,0,0,0,0,0,0,0,0,0],"sum_hessian":[4.3583733E1,3.9521297E1,4.0624337E0,3.6020912E1,3.5003865E0,2.0442307E0,2.018203E0,8.391166E0,2.7629745E1,1.0590601E0,2.4413264E0,1.0030928E0,1.0411379E0,7.320375E0,1.0707911E0,2.491781E1,2.7119358E0,1.3667101E0,5.953665E0,1.0889018E1,1.4028792E1,1.6874788E0,1.0244569E0],"tree_param":{"num_deleted":"0","num_feature":"10","num_nodes":"23","size_leaf_vector":"1"}},{"base_weights":[-5.7247854E-3,-8.174687E-2,4.1221553E-1,-2.7773184E-1,2.7497515E-2,5.683938E-1,-1.4994656E-2,4.7930345E-2,-7.017254E-1,-1.359216E-1,3.3451608E-1,1.7691696E-1,7.608884E-2,-2.194191E-1,4.842395E-1,-2.577781E-3,-8.340823E-2,1.7491606E-1,-7.003406E-1,1.0061177E0,-1.2181523E-1,-1.6062295E-2,4.2474087E-2,1.9409921E-2,-4.7894206E-2,-9.247551E-3,7.496449E-2,-2.5639731E-2,4.4344056E-2,-8.283224E-2,-1.2571247E-3,1.3785145E-1,2.0537548E-2,4.6167333E-2,-4.0885907E-2],"categories":[],"categories_nodes":[],"categories_segments":[],"categories_sizes":[],"default_left":[0,0,0,0,0,0,0,0,0,0,0,0,0,0,0,0,0,0,0,0,0,0,0,0,0,0,0,0,0,0,0,0,0,0,0],"id":47,"left_children":[1,3,5,7,9,11,-1,13,15,17,19,21,-1,23,25,-1,-1,27,29,31,33,-1,-1,-1,-1,-1,-1,-1,-1,-1,-1,-1,-1,-1,-1],"loss_changes":[1.439079E0,8.2678044E-1,6.974379E-1,1.9368385E0,1.3236638E0,2.9233527E-1,0E0,1.1247879E0,5.199218E-1,3.164195E0,2.9233146E0,3.3343953E-1,0E0,7.4785507E-1,6.2485135E-1,0E0,0E0,1.501231E0,5.491407E-1,8.515911E-1,1.2495221E0,0E0,0E0,0E0,0E0,0E0,0E0,0E0,0E0,0E0,0E0,0E0,0E0,0E0,0E0],"parents":[2147483647,0,0,1,1,2,2,3,3,4,4,5,5,7,7,8,8,9,9,10,10,11,11,13,13,14,14,17,17,18,18,19,19,20,20],"right_children":[2,4,6,8,10,12,-1,14,16,18,20,22,-1,24,26,-1,-1,28,30,32,34,-1,-1,-1,-1,-1,-1,-1,-1,-1,-1,-1,-1,-1,-1],"split_conditions":[8.68801E3,1E1,1E1,7E0,1.005E3,1E0,-1.4994656E-2,1.1E1,7.567333E-1,6.98E2,1.3E1,2E0,7.608884E-2,5E0,5E0,-2.577781E-3,-8.340823E-2,2.28996E3,1.152592E0,1.075E3,6.1494E2,-1.6062295E-2,4.2474087E-2,1.9409921E-2,-4.7894206E-2,-9.247551E-3,7.496449E-2,-2.5639731E-2,4.4344056E-2,-8.283224E-2,-1.2571247E-3,1.3785145E-1,2.0537548E-2,4.6167333E-2,-4.0885907E-2],"split_indices":[0,3,3,3,5,9,0,7,1,5,3,2,0,7,6,0,0,0,1,5,0,0,0,0,0,0,0,0,0,0,0,0,0,0,0],"split_type":[0,0,0,0,0,0,0,0,0,0,0,0,0,0,0,0,0,0,0,0,0,0,0,0,0,0,0,0,0,0,0,0,0,0,0],"sum_hessian":[4.323237E1,3.7259403E1,5.972967E0,1.278348E1,2.4475922E1,4.6656766E0,1.3072907E0,7.7317843E0,5.051695E0,1.6337254E1,8.13867E0,2.170532E0,2.4951448E0,5.1023865E0,2.6293976E0,1.0228337E0,4.0288615E0,1.0980275E1,5.356978E0,2.8052583E0,5.333411E0,1.0679011E0,1.1026309E0,2.064673E0,3.0377138E0,1.0340403E0,1.5953574E0,4.230408E0,6.749867E0,4.344232E0,1.0127461E0,1.4222668E0,1.3829913E0,1.5580044E0,3.7754068E0],"tree_param":{"num_deleted":"0","num_feature":"10","num_nodes":"35","size_leaf_vector":"1"}},{"base_weights":[-3.1664632E-3,-4.7696028E-2,6.596544E-2,-6.145349E-2,-1.1638423E-2,2.629343E-1,-7.709311E-2,4.4672847E-1,-5.093771E-2,-7.840404E-3,-4.5769483E-1,6.797002E-2,-2.1708442E-2,-1.9432824E-2,2.7454276E-2,-7.705357E-2,2.8566578E-2],"categories":[],"categories_nodes":[],"categories_segments":[],"categories_sizes":[],"default_left":[0,0,0,0,0,0,0,0,0,0,0,0,0,0,0,0,0],"id":48,"left_children":[1,3,-1,-1,5,7,9,11,-1,13,15,-1,-1,-1,-1,-1,-1],"loss_changes":[1.3193598E0,8.476165E-1,0E0,0E0,7.452437E-1,1.361973E0,8.753615E-1,1.228299E0,0E0,1.592677E0,1.4098982E0,0E0,0E0,0E0,0E0,0E0,0E0],"parents":[2147483647,0,0,1,1,4,4,5,5,6,6,7,7,9,9,10,10],"right_children":[2,4,-1,-1,6,8,10,12,-1,14,16,-1,-1,-1,-1,-1,-1],"split_conditions":[2.0472703E0,2E0,6.596544E-2,-6.145349E-2,5E0,1.6E1,1.093E3,2.99028E3,-5.093771E-2,8.67E2,5E0,6.797002E-2,-2.1708442E-2,-1.9432824E-2,2.7454276E-2,-7.705357E-2,2.8566578E-2],"split_indices":[1,7,0,0,7,3,5,0,0,5,2,0,0,0,0,0,0],"split_type":[0,0,0,0,0,0,0,0,0,0,0,0,0,0,0,0,0],"sum_hessian":[4.2635147E1,4.0820774E1,1.8143764E0,1.4818828E0,3.933889E1,6.9918923E0,3.2346996E1,5.9883566E0,1.0035357E0,2.8230833E1,4.1161647E0,4.414952E0,1.5734048E0,1.7190159E1,1.1040674E1,2.871251E0,1.2449136E0],"tree_param":{"num_deleted":"0","num_feature":"10","num_nodes":"17","size_leaf_vector":"1"}},{"base_weights":[-4.297322E-3,-7.4676916E-2,3.9345837E-1,-2.6769724E-1,3.1430285E-2,6.3442713E-1,1.014375E-2,3.8016785E-2,-6.837016E-1,-1.2274276E-1,3.1321657E-1,2.6307216E-2,8.41013E-2,4.141602E-2,-3.0558875E-2,-2.172883E-1,4.4436455E-1,-1.6214798E-3,-8.207676E-2,1.7152873E-1,-6.8394715E-1,9.007327E-1,-1.11911744E-1,1.4841964E-2,-4.5490257E-2,-8.517832E-3,6.7891635E-2,-2.1663504E-2,4.698148E-2,-8.161103E-2,-1.3413809E-3,-3.9675287E-3,1.2423845E-1,4.172991E-2,-3.8678296E-2],"categories":[],"categories_nodes":[],"categories_segments":[],"categories_sizes":[],"default_left":[0,0,0,0,0,0,0,0,0,0,0,0,0,0,0,0,0,0,0,0,0,0,0,0,0,0,0,0,0,0,0,0,0,0,0],"id":49,"left_children":[1,3,5,7,9,11,13,15,17,19,21,-1,-1,-1,-1,23,25,-1,-1,27,29,31,33,-1,-1,-1,-1,-1,-1,-1,-1,-1,-1,-1,-1],"loss_changes":[1.2448531E0,7.8119695E-1,6.1123717E-1,1.7415583E0,1.1350782E0,9.250295E-2,5.85457E-1,1.0014769E0,5.142851E-1,2.930454E0,2.4007673E0,0E0,0E0,0E0,0E0,5.9138566E-1,5.1666296E-1,0E0,0E0,1.4881939E0,5.2609134E-1,1.3268642E0,1.0679381E0,0E0,0E0,0E0,0E0,0E0,0E0,0E0,0E0,0E0,0E0,0E0,0E0],"parents":[2147483647,0,0,1,1,2,2,3,3,4,4,5,5,6,6,7,7,8,8,9,9,10,10,15,15,16,16,19,19,20,20,21,21,22,22],"right_children":[2,4,6,8,10,12,14,16,18,20,22,-1,-1,-1,-1,24,26,-1,-1,28,30,32,34,-1,-1,-1,-1,-1,-1,-1,-1,-1,-1,-1,-1],"split_conditions":[8.68801E3,1E1,1.01128E4,7E0,1.005E3,1.2E1,3E0,1.1E1,7.5462294E-1,6.98E2,1.3E1,2.6307216E-2,8.41013E-2,4.141602E-2,-3.0558875E-2,5E0,5E0,-1.6214798E-3,-8.207676E-2,1.0016042E0,1.152592E0,3E0,6.1494E2,1.4841964E-2,-4.5490257E-2,-8.517832E-3,6.7891635E-2,-2.1663504E-2,4.698148E-2,-8.161103E-2,-1.3413809E-3,-3.9675287E-3,1.2423845E-1,4.172991E-2,-3.8678296E-2],"split_indices":[0,3,0,3,5,7,3,7,1,5,3,0,0,0,0,7,6,0,0,1,1,2,0,0,0,0,0,0,0,0,0,0,0,0,0],"split_type":[0,0,0,0,0,0,0,0,0,0,0,0,0,0,0,0,0,0,0,0,0,0,0,0,0,0,0,0,0,0,0,0,0,0,0],"sum_hessian":[4.241916E1,3.673199E1,5.687169E0,1.248945E1,2.4242538E1,3.0897224E0,2.5974464E0,7.7227535E0,4.7666974E0,1.6034199E1,8.20834E0,1.9170662E0,1.1726563E0,1.0026698E0,1.5947767E0,5.028593E0,2.6941602E0,1.0025855E0,3.7641118E0,1.0974171E1,5.060028E0,2.9763591E0,5.231981E0,2.1283157E0,2.9002774E0,1.022509E0,1.6716514E0,4.887602E0,6.0865693E0,4.0455394E0,1.0144887E0,1.0286999E0,1.9476591E0,1.6113938E0,3.6205869E0],"tree_param":{"num_deleted":"0","num_feature":"10","num_nodes":"35","size_leaf_vector":"1"}},{"base_weights":[-1.9349959E-3,-4.2901963E-2,6.3671954E-2,-5.991549E-2,-8.454388E-3,4.0347636E-2,-3.2223782E-1,-4.017482E-1,1.0190817E-1,4.2777326E-2,-5.929938E-1,1.7176798E-2,-7.063853E-2,7.6348506E-2,1.2452793E-3,-7.310976E-2,-9.906397E-3],"categories":[],"categories_nodes":[],"categories_segments":[],"categories_sizes":[],"default_left":[0,0,0,0,0,0,0,0,0,0,0,0,0,0,0,0,0],"id":50,"left_children":[1,3,-1,-1,5,7,9,11,13,-1,15,-1,-1,-1,-1,-1,-1],"loss_changes":[1.1505575E0,7.8592837E-1,0E0,0E0,6.2380517E-1,1.0045755E0,1.366466E0,9.128038E-1,1.8770401E0,0E0,2.308129E-1,0E0,0E0,0E0,0E0,0E0,0E0],"parents":[2147483647,0,0,1,1,4,4,5,5,6,6,7,7,8,8,10,10],"right_children":[2,4,-1,-1,6,8,10,12,14,-1,16,-1,-1,-1,-1,-1,-1],"split_conditions":[2.0472703E0,2E0,6.3671954E-2,-5.991549E-2,1.093E3,7.0217454E-1,4.017E2,8E0,7.7033716E-1,4.2777326E-2,1.4E1,1.7176798E-2,-7.063853E-2,7.6348506E-2,1.2452793E-3,-7.310976E-2,-9.906397E-3],"split_indices":[1,7,0,0,5,1,0,3,1,0,7,0,0,0,0,0,0],"split_type":[0,0,0,0,0,0,0,0,0,0,0,0,0,0,0,0,0],"sum_hessian":[4.193121E1,4.0280228E1,1.6509806E0,1.393005E0,3.8887222E1,3.440734E1,4.47988E0,3.530079E0,3.0877264E1,1.0344543E0,3.4454255E0,1.3759123E0,2.1541667E0,2.7803168E0,2.8096947E1,2.3173304E0,1.128095E0],"tree_param":{"num_deleted":"0","num_feature":"10","num_nodes":"17","size_leaf_vector":"1"}},{"base_weights":[-2.4453297E-3,-5.557279E-2,4.6347967E-1,4.4649377E-4,-5.1923096E-1,6.466444E-2,1.1967499E-2,-1.4304815E-1,1.5323967E-1,2.2058855E-3,-6.966795E-2,-3.7865183E-1,1.0823854E-1,8.644755E-2,3.3292465E-2,-5.9793748E-2,1.0248882E-3,2.6298374E-2,-5.6466997E-2,1.5574246E-2,-4.21832E-2],"categories":[],"categories_nodes":[],"categories_segments":[],"categories_sizes":[],"default_left":[0,0,0,0,0,0,0,0,0,0,0,0,0,0,0,0,0,0,0,0,0],"id":51,"left_children":[1,3,5,7,9,-1,-1,11,13,-1,-1,15,17,-1,19,-1,-1,-1,-1,-1,-1],"loss_changes":[1.0831069E0,1.0193436E0,2.0467961E-1,8.113474E-1,4.216994E-1,0E0,0E0,1.1708989E0,1.5000476E0,0E0,0E0,8.6509013E-1,1.1911321E0,0E0,9.782552E-1,0E0,0E0,0E0,0E0,0E0,0E0],"parents":[2147483647,0,0,1,1,2,2,3,3,4,4,7,7,8,8,11,11,12,12,14,14],"right_children":[2,4,6,8,10,-1,-1,12,14,-1,-1,16,18,-1,20,-1,-1,-1,-1,-1,-1],"split_conditions":[1.4785079E0,1.2063513E0,8E0,9.939519E-1,6E0,6.466444E-2,1.1967499E-2,8.67E2,1.006056E0,2.2058855E-3,-6.966795E-2,1.4E1,6E0,8.644755E-2,1.4E1,-5.9793748E-2,1.0248882E-3,2.6298374E-2,-5.6466997E-2,1.5574246E-2,-4.21832E-2],"split_indices":[1,1,7,1,3,0,0,5,1,0,0,3,2,0,7,0,0,0,0,0,0],"split_type":[0,0,0,0,0,0,0,0,0,0,0,0,0,0,0,0,0,0,0,0,0],"sum_hessian":[4.1715324E1,3.8236145E1,3.4791803E0,3.5005775E1,3.2303689E0,1.6952007E0,1.7839797E0,1.808508E1,1.6920696E1,1.0137401E0,2.2166288E0,9.072216E0,9.012863E0,1.5460638E0,1.5374634E1,5.4574633E0,3.614753E0,7.8230267E0,1.1898366E0,1.2633443E1,2.7411904E0],"tree_param":{"num_deleted":"0","num_feature":"10","num_nodes":"21","size_leaf_vector":"1"}},{"base_weights":[-3.206531E-3,-6.8118714E-2,3.750766E-1,-2.5471866E-1,3.220014E-2,5.2961284E-1,-1.3736083E-2,2.8387908E-2,-6.605133E-1,-1.1155894E-1,2.879263E-1,1.5348988E-2,7.205917E-2,-2.1193597E-1,3.984847E-1,-1.6628372E-3,-8.0278955E-2,1.606762E-1,-6.6393346E-1,9.6856005E-2,-2.5601232E-2,2.4289299E-2,-3.8516585E-2,-9.80565E-3,6.2248863E-2,-2.3984255E-2,3.9827377E-2,-8.009054E-2,-1.4367602E-3,-6.952917E-2,3.6422666E-2],"categories":[],"categories_nodes":[],"categories_segments":[],"categories_sizes":[],"default_left":[0,0,0,0,0,0,0,0,0,0,0,0,0,0,0,0,0,0,0,0,0,0,0,0,0,0,0,0,0,0,0],"id":52,"left_children":[1,3,5,7,9,11,-1,13,15,17,19,-1,-1,21,23,-1,-1,25,27,-1,29,-1,-1,-1,-1,-1,-1,-1,-1,-1,-1],"loss_changes":[1.0708306E0,7.0419586E-1,5.786526E-1,1.5250952E0,9.5370173E-1,2.567593E-1,0E0,8.5668844E-1,4.84056E-1,2.6281605E0,2.00946E0,0E0,0E0,5.59746E-1,4.7986E-1,0E0,0E0,1.2410209E0,4.983542E-1,0E0,2.1698544E0,0E0,0E0,0E0,0E0,0E0,0E0,0E0,0E0,0E0,0E0],"parents":[2147483647,0,0,1,1,2,2,3,3,4,4,5,5,7,7,8,8,9,9,10,10,13,13,14,14,17,17,18,18,20,20],"right_children":[2,4,6,8,10,12,-1,14,16,18,20,-1,-1,22,24,-1,-1,26,28,-1,30,-1,-1,-1,-1,-1,-1,-1,-1,-1,-1],"split_conditions":[8.68801E3,1E1,1E1,7E0,1.005E3,1E0,-1.3736083E-2,1.1E1,7.6265025E-1,6.98E2,1.051E3,1.5348988E-2,7.205917E-2,9.1058E2,5E0,-1.6628372E-3,-8.0278955E-2,2.28996E3,1.1482731E0,9.6856005E-2,3E0,2.4289299E-2,-3.8516585E-2,-9.80565E-3,6.2248863E-2,-2.3984255E-2,3.9827377E-2,-8.009054E-2,-1.4367602E-3,-6.952917E-2,3.6422666E-2],"split_indices":[0,3,3,3,5,9,0,7,1,5,5,0,0,0,6,0,0,0,1,0,2,0,0,0,0,0,0,0,0,0,0],"split_type":[0,0,0,0,0,0,0,0,0,0,0,0,0,0,0,0,0,0,0,0,0,0,0,0,0,0,0,0,0,0,0],"sum_hessian":[4.1568645E1,3.618017E1,5.388476E0,1.2111975E1,2.4068195E1,4.1142273E0,1.2742488E0,7.682351E0,4.4296236E0,1.5767877E1,8.300318E0,1.9929384E0,2.1212888E0,4.9168954E0,2.765456E0,1.0037824E0,3.425841E0,1.103731E1,4.7305675E0,1.9587823E0,6.3415356E0,1.2452496E0,3.6716456E0,1.0345227E0,1.7309333E0,4.106137E0,6.9311724E0,3.714349E0,1.0162185E0,2.0449324E0,4.2966027E0],"tree_param":{"num_deleted":"0","num_feature":"10","num_nodes":"31","size_leaf_vector":"1"}},{"base_weights":[-3.213977E-3,-3.9602388E-2,6.036045E-2,-5.8276385E-2,-6.8119997E-3,2.3013139E-1,-6.532581E-2,4.541627E-1,-3.2388963E-2,-2.087113E-1,8.548552E-2,1.2180544E-2,9.4842084E-2,-3.9297383E-2,1.5329042E-2,-4.7076132E-2,2.0877605E-2],